{"learner":{"attributes":{"scikit_learn":"{\"_estimator_type\": \"regressor\"}"},"feature_names":[],"feature_types":[],"gradient_booster":{"model":{"gbtree_model_param":{"num_parallel_tree":"1","num_trees":"100"},"iteration_indptr":[0,1,2,3,4,5,6,7,8,9,10,11,12,13,14,15,16,17,18,19,20,21,22,23,24,25,26,27,28,29,30,31,32,33,34,35,36,37,38,39,40,41,42,43,44,45,46,47,48,49,50,51,52,53,54,55,56,57,58,59,60,61,62,63,64,65,66,67,68,69,70,71,72,73,74,75,76,77,78,79,80,81,82,83,84,85,86,87,88,89,90,91,92,93,94,95,96,97,98,99,100],"tree_info":[0,0,0,0,0,0,0,0,0,0,0,0,0,0,0,0,0,0,0,0,0,0,0,0,0,0,0,0,0,0,0,0,0,0,0,0,0,0,0,0,0,0,0,0,0,0,0,0,0,0,0,0,0,0,0,0,0,0,0,0,0,0,0,0,0,0,0,0,0,0,0,0,0,0,0,0,0,0,0,0,0,0,0,0,0,0,0,0,0,0,0,0,0,0,0,0,0,0,0,0],"trees":[{"base_weights":[-7.3684715E-3,-1.2561224E-1,1.3166292E-1,-1.853864E-1,-4.515661E-2,5.219162E-2,1.7094074E-1,-2.1888635E-3,-1.5321893E-3,-8.833331E-2,-2.7306229E-2,2.8370552E-2,6.8172056E-4,1.3507701E-3,1.8998518E-3,-8.9889846E-4,-2.548819E-4,-3.4639288E-2,-7.0491713E-3,1.014816E-2,3.4893252E-2,-4.2643867E-4,-2.6841773E-4,2.256316E-3,-9.869047E-3,1.141111E-5,1.2960324E-4,1.3717343E-4,3.6682902E-4,3.626123E-5,-1.6114562E-5,-4.761734E-5,-1.3104315E-4],"categories":[],"categories_nodes":[],"categories_segments":[],"categories_sizes":[],"default_left":[0,0,0,0,0,0,0,0,0,0,0,0,0,0,0,0,0,0,0,0,0,0,0,0,0,0,0,0,0,0,0,0,0],"id":0,"left_children":[1,3,5,7,9,11,13,-1,-1,15,17,19,-1,-1,-1,-1,-1,21,23,25,27,-1,-1,29,31,-1,-1,-1,-1,-1,-1,-1,-1],"loss_changes":[6.1156287E0,9.5827127E-1,5.24848E-1,9.038758E-2,6.464061E-2,2.0144835E-2,5.219984E-2,0E0,0E0,1.5439093E-4,9.114236E-3,2.6173778E-3,0E0,0E0,0E0,0E0,0E0,1.7264895E-3,4.945935E-4,1.8784532E-4,1.7896295E-4,0E0,0E0,3.2333846E-5,1.6893004E-4,0E0,0E0,0E0,0E0,0E0,0E0,0E0,0E0],"parents":[2147483647,0,0,1,1,2,2,3,3,4,4,5,5,6,6,9,9,10,10,11,11,17,17,18,18,19,19,20,20,23,23,24,24],"right_children":[2,4,6,8,10,12,14,-1,-1,16,18,20,-1,-1,-1,-1,-1,22,24,26,28,-1,-1,30,32,-1,-1,-1,-1,-1,-1,-1,-1],"split_conditions":[2.6713917E-1,1.5374637E-1,3.6000985E-1,7.407958E-2,1.9400084E-1,3.1197992E-1,4.0898547E-1,-2.1888635E-3,-1.5321893E-3,2.701949E-1,2.4918331E-1,2.8041303E-1,6.8172056E-4,1.3507701E-3,1.8998518E-3,-8.9889846E-4,-2.548819E-4,2.2334671E-1,4.2248455E-1,4.279841E-1,2.438532E-1,-4.2643867E-4,-2.6841773E-4,3.8330147E-1,3.1731588E-1,1.141111E-5,1.2960324E-4,1.3717343E-4,3.6682902E-4,3.626123E-5,-1.6114562E-5,-4.761734E-5,-1.3104315E-4],"split_indices":[573,541,541,573,571,573,571,0,0,10,571,573,0,0,0,0,0,571,322,18,43,0,0,0,327,0,0,0,0,0,0,0,0],"split_type":[0,0,0,0,0,0,0,0,0,0,0,0,0,0,0,0,0,0,0,0,0,0,0,0,0,0,0,0,0,0,0,0,0],"sum_hessian":[3.7E2,2E2,1.7E2,1.14E2,8.6E1,5.7E1,1.13E2,5.3E1,6.1E1,2.4E1,6.2E1,2.4E1,3.3E1,4.2E1,7.1E1,2.3E1,1E0,4.5E1,1.7E1,7E0,1.7E1,2E1,2.5E1,4E0,1.3E1,2E0,5E0,2E0,1.5E1,3E0,1E0,6E0,7E0],"tree_param":{"num_deleted":"0","num_feature":"600","num_nodes":"33","size_leaf_vector":"1"}},{"base_weights":[-2.950064E-3,-1.2194349E-1,1.3484906E-1,-1.887199E-1,-4.605556E-2,5.3349037E-2,1.7200847E-1,-2.1901855E-3,-1.5362668E-3,-9.279408E-4,-2.6820328E-2,2.5896218E-2,6.711869E-2,1.3664516E-3,1.8998998E-3,-3.6671482E-2,-7.2319037E-3,1.5426365E-2,3.4823432E-4,4.7905845E-4,7.4729027E-4,-4.596999E-4,-2.8769881E-4,3.468752E-3,-1.0991497E-2,1.6535028E-4,2.1698623E-5,-1.6033948E-5,4.581342E-5,-1.6251374E-4,-6.166905E-5],"categories":[],"categories_nodes":[],"categories_segments":[],"categories_sizes":[],"default_left":[0,0,0,0,0,0,0,0,0,0,0,0,0,0,0,0,0,0,0,0,0,0,0,0,0,0,0,0,0,0,0],"id":1,"left_children":[1,3,5,7,9,11,13,-1,-1,-1,15,17,19,-1,-1,21,23,25,-1,-1,-1,-1,-1,27,29,-1,-1,-1,-1,-1,-1],"loss_changes":[6.0506096E0,9.94678E-1,5.086961E-1,7.799673E-2,8.201973E-2,1.9052729E-2,4.8437595E-2,0E0,0E0,0E0,1.2856655E-2,1.3321349E-3,1.6838461E-3,0E0,0E0,1.9837432E-3,1.0036497E-3,1.2578839E-4,0E0,0E0,0E0,0E0,0E0,4.684824E-5,3.5656104E-4,0E0,0E0,0E0,0E0,0E0,0E0],"parents":[2147483647,0,0,1,1,2,2,3,3,4,4,5,5,6,6,10,10,11,11,12,12,15,15,16,16,17,17,23,23,24,24],"right_children":[2,4,6,8,10,12,14,-1,-1,-1,16,18,20,-1,-1,22,24,26,-1,-1,-1,-1,-1,28,30,-1,-1,-1,-1,-1,-1],"split_conditions":[2.705135E-1,1.433652E-1,3.8302457E-1,7.360087E-2,1.9400084E-1,3.1055447E-1,4.1273028E-1,-2.1901855E-3,-1.5362668E-3,-9.279408E-4,2.4697258E-1,2.937566E-1,3.2753313E-1,1.3664516E-3,1.8998998E-3,2.1357255E-1,4.2248455E-1,5.8473074E-1,3.4823432E-4,4.7905845E-4,7.4729027E-4,-4.596999E-4,-2.8769881E-4,3.2330325E-1,2.515177E-1,1.6535028E-4,2.1698623E-5,-1.6033948E-5,4.581342E-5,-1.6251374E-4,-6.166905E-5],"split_indices":[541,573,573,573,541,573,571,0,0,0,571,573,571,0,0,571,322,13,0,0,0,0,0,16,571,0,0,0,0,0,0],"split_type":[0,0,0,0,0,0,0,0,0,0,0,0,0,0,0,0,0,0,0,0,0,0,0,0,0,0,0,0,0,0,0],"sum_hessian":[3.67E2,1.97E2,1.7E2,1.04E2,9.3E1,5.4E1,1.16E2,5.3E1,5.1E1,2.6E1,6.7E1,1.9E1,3.5E1,4.2E1,7.4E1,4.4E1,2.3E1,1E1,9E0,1.2E1,2.3E1,1.8E1,2.6E1,6E0,1.7E1,9E0,1E0,1E0,5E0,7E0,1E1],"tree_param":{"num_deleted":"0","num_feature":"600","num_nodes":"31","size_leaf_vector":"1"}},{"base_weights":[1.491303E-4,-1.2733373E-1,1.26253E-1,-1.8288592E-1,-5.188672E-2,4.615354E-2,1.6823821E-1,-2.1107532E-3,-1.5009526E-3,-9.108605E-4,-2.9781561E-2,1.2978338E-2,5.8582805E-2,1.3147137E-3,1.8412156E-3,-4.2270715E-4,-1.841876E-2,3.7426888E-3,2.0916153E-2,4.4932312E-4,6.8797945E-4,-6.834856E-5,-2.114348E-2,5.660653E-4,5.7660937E-3,1.044891E-4,2.390941E-4,-7.537626E-5,-2.2807474E-4,1.5052706E-5,-1.595378E-5,3.0296073E-5,7.492711E-5],"categories":[],"categories_nodes":[],"categories_segments":[],"categories_sizes":[],"default_left":[0,0,0,0,0,0,0,0,0,0,0,0,0,0,0,0,0,0,0,0,0,0,0,0,0,0,0,0,0,0,0,0,0],"id":2,"left_children":[1,3,5,7,9,11,13,-1,-1,-1,15,17,19,-1,-1,-1,21,23,25,-1,-1,-1,27,29,31,-1,-1,-1,-1,-1,-1,-1,-1],"loss_changes":[5.915998E0,7.57509E-1,6.143887E-1,6.537533E-2,6.574139E-2,2.6042014E-2,4.6454668E-2,0E0,0E0,0E0,6.600842E-3,1.3146242E-3,3.4625083E-3,0E0,0E0,0E0,7.708119E-4,6.1011975E-5,6.3484535E-5,0E0,0E0,0E0,3.488073E-4,1.2551671E-5,5.6492136E-6,0E0,0E0,0E0,0E0,0E0,0E0,0E0,0E0],"parents":[2147483647,0,0,1,1,2,2,3,3,4,4,5,5,6,6,10,10,11,11,12,12,16,16,17,17,18,18,22,22,23,23,24,24],"right_children":[2,4,6,8,10,12,14,-1,-1,-1,16,18,20,-1,-1,-1,22,24,26,-1,-1,-1,28,30,32,-1,-1,-1,-1,-1,-1,-1,-1],"split_conditions":[2.618947E-1,1.4022867E-1,3.6006165E-1,7.737354E-2,2.02401E-1,2.9921636E-1,4.2020005E-1,-2.1107532E-3,-1.5009526E-3,-9.108605E-4,2.2995982E-1,2.83135E-1,3.2024086E-1,1.3147137E-3,1.8412156E-3,-4.2270715E-4,1.8353687E-1,2.169313E-1,2.8362006E-1,4.4932312E-4,6.8797945E-4,-6.834856E-5,1.9852424E-1,3.9151177E-1,3.1609377E-1,1.044891E-4,2.390941E-4,-7.537626E-5,-2.2807474E-4,1.5052706E-5,-1.595378E-5,3.0296073E-5,7.492711E-5],"split_indices":[573,573,573,573,573,573,573,0,0,0,573,542,573,0,0,0,192,478,390,0,0,0,121,0,27,0,0,0,0,0,0,0,0],"split_type":[0,0,0,0,0,0,0,0,0,0,0,0,0,0,0,0,0,0,0,0,0,0,0,0,0,0,0,0,0,0,0,0,0],"sum_hessian":[3.66E2,1.82E2,1.84E2,1.04E2,7.8E1,6.4E1,1.2E2,5.3E1,5.1E1,2.7E1,5.1E1,1.8E1,4.6E1,3.9E1,8.1E1,2.3E1,2.8E1,9E0,9E0,2.2E1,2.4E1,6E0,2.2E1,4E0,5E0,3E0,6E0,3E0,1.9E1,3E0,1E0,3E0,2E0],"tree_param":{"num_deleted":"0","num_feature":"600","num_nodes":"33","size_leaf_vector":"1"}},{"base_weights":[-6.0639915E-4,-1.229981E-1,1.3187587E-1,-1.843049E-1,-4.653251E-2,5.182395E-2,1.6890156E-1,-2.1575587E-3,-1.5182757E-3,-8.7265775E-2,-2.640469E-2,2.459969E-2,6.4140484E-2,1.3449569E-3,1.8815586E-3,-8.860244E-4,-2.4919547E-4,-3.6921922E-2,-7.423093E-3,1.2250531E-2,3.0306889E-2,4.8700746E-4,7.2404445E-4,-4.473926E-4,-2.8847647E-4,3.9454922E-4,-1.0867971E-2,2.1438598E-5,1.3388075E-4,8.625209E-5,3.1394928E-4,3.1130792E-5,-3.1022504E-5,-1.4761277E-4,-7.055859E-5],"categories":[],"categories_nodes":[],"categories_segments":[],"categories_sizes":[],"default_left":[0,0,0,0,0,0,0,0,0,0,0,0,0,0,0,0,0,0,0,0,0,0,0,0,0,0,0,0,0,0,0,0,0,0,0],"id":3,"left_children":[1,3,5,7,9,11,13,-1,-1,15,17,19,21,-1,-1,-1,-1,23,25,27,29,-1,-1,-1,-1,31,33,-1,-1,-1,-1,-1,-1,-1,-1],"loss_changes":[6.1453886E0,9.1493225E-1,5.3069067E-1,7.8579664E-2,7.0664346E-2,1.8205374E-2,5.683899E-2,0E0,0E0,2.0880997E-4,1.1903591E-2,1.0383064E-3,1.5775859E-3,0E0,0E0,0E0,0E0,1.1710338E-3,6.2369683E-4,6.327219E-5,3.5888515E-5,0E0,0E0,0E0,0E0,8.570678E-5,1.3331382E-4,0E0,0E0,0E0,0E0,0E0,0E0,0E0,0E0],"parents":[2147483647,0,0,1,1,2,2,3,3,4,4,5,5,6,6,9,9,10,10,11,11,12,12,17,17,18,18,19,19,20,20,25,25,26,26],"right_children":[2,4,6,8,10,12,14,-1,-1,16,18,20,22,-1,-1,-1,-1,24,26,28,30,-1,-1,-1,-1,32,34,-1,-1,-1,-1,-1,-1,-1,-1],"split_conditions":[2.705135E-1,1.4906137E-1,3.6000985E-1,8.1151545E-2,1.9400084E-1,3.02065E-1,4.1667125E-1,-2.1575587E-3,-1.5182757E-3,2.7115682E-1,2.4697258E-1,2.8725964E-1,3.2795018E-1,1.3449569E-3,1.8815586E-3,-8.860244E-4,-2.4919547E-4,2.1357255E-1,4.3683544E-1,2.2958885E-1,1.5174532E-1,4.8700746E-4,7.2404445E-4,-4.473926E-4,-2.8847647E-4,5.473111E-1,4.5756522E-1,2.1438598E-5,1.3388075E-4,8.625209E-5,3.1394928E-4,3.1130792E-5,-3.1022504E-5,-1.4761277E-4,-7.055859E-5],"split_indices":[541,575,541,571,571,575,571,0,0,10,571,571,575,0,0,0,0,571,352,9,6,0,0,0,0,89,112,0,0,0,0,0,0,0,0],"split_type":[0,0,0,0,0,0,0,0,0,0,0,0,0,0,0,0,0,0,0,0,0,0,0,0,0,0,0,0,0,0,0,0,0,0,0],"sum_hessian":[3.77E2,1.96E2,1.81E2,1.08E2,8.8E1,5.8E1,1.23E2,5.2E1,5.6E1,2.8E1,6E1,1.9E1,3.9E1,4.7E1,7.6E1,2.7E1,1E0,3.8E1,2.2E1,7E0,1.2E1,1.6E1,2.3E1,1.7E1,2.1E1,7E0,1.5E1,1E0,6E0,1E0,1.1E1,4E0,3E0,6E0,9E0],"tree_param":{"num_deleted":"0","num_feature":"600","num_nodes":"35","size_leaf_vector":"1"}},{"base_weights":[-3.0663267E-3,-1.2279796E-1,1.2833144E-1,-1.8213423E-1,-4.4747747E-2,4.9691338E-2,1.6756718E-1,-2.143905E-3,-1.540234E-3,-8.498574E-2,-2.4884637E-2,2.7642174E-2,6.346994E-2,1.3778252E-3,1.8815009E-3,-8.6405646E-4,-2.2614225E-4,-3.4312412E-2,-6.6121113E-3,1.0934808E-2,3.2107644E-2,4.4420414E-4,6.785012E-4,-3.860623E-2,-2.1076314E-2,2.2947416E-3,-1.0921625E-2,2.1331458E-5,1.2046228E-4,1.0066171E-4,3.399746E-4,-3.9966975E-4,-1.3490766E-4,-2.2202608E-4,-4.3435393E-5,-1.5718937E-5,3.0716743E-5,-1.9318168E-4,-6.112139E-5],"categories":[],"categories_nodes":[],"categories_segments":[],"categories_sizes":[],"default_left":[0,0,0,0,0,0,0,0,0,0,0,0,0,0,0,0,0,0,0,0,0,0,0,0,0,0,0,0,0,0,0,0,0,0,0,0,0,0,0],"id":4,"left_children":[1,3,5,7,9,11,13,-1,-1,15,17,19,21,-1,-1,-1,-1,23,25,27,29,-1,-1,31,33,35,37,-1,-1,-1,-1,-1,-1,-1,-1,-1,-1,-1,-1],"loss_changes":[6.1042247E0,9.3198514E-1,5.624914E-1,7.125521E-2,6.901856E-2,1.7385378E-2,4.948187E-2,0E0,0E0,6.1428547E-4,1.0281544E-2,1.5886705E-3,1.5680492E-4,0E0,0E0,0E0,0E0,1.4596619E-3,8.6951494E-4,4.278007E-5,4.9086474E-4,0E0,0E0,4.5191124E-4,1.2971414E-4,2.8861265E-5,4.8767054E-4,0E0,0E0,0E0,0E0,0E0,0E0,0E0,0E0,0E0,0E0,0E0,0E0],"parents":[2147483647,0,0,1,1,2,2,3,3,4,4,5,5,6,6,9,9,10,10,11,11,12,12,17,17,18,18,19,19,20,20,23,23,24,24,25,25,26,26],"right_children":[2,4,6,8,10,12,14,-1,-1,16,18,20,22,-1,-1,-1,-1,24,26,28,30,-1,-1,32,34,36,38,-1,-1,-1,-1,-1,-1,-1,-1,-1,-1,-1,-1],"split_conditions":[2.7072674E-1,1.4522125E-1,3.5687467E-1,7.729325E-2,2.020151E-1,3.0993775E-1,4.24945E-1,-2.143905E-3,-1.540234E-3,7.108323E-1,2.5129443E-1,3.5562566E-1,4.3696895E-1,1.3778252E-3,1.8815009E-3,-8.6405646E-4,-2.2614225E-4,2.6662472E-1,4.2248455E-1,2.4228613E-1,2.438532E-1,4.4420414E-4,6.785012E-4,2.6471835E-1,8.742061E-1,3.2330325E-1,2.5616816E-1,2.1331458E-5,1.2046228E-4,1.0066171E-4,3.399746E-4,-3.9966975E-4,-1.3490766E-4,-2.2202608E-4,-4.3435393E-5,-1.5718937E-5,3.0716743E-5,-1.9318168E-4,-6.112139E-5],"split_indices":[511,575,575,572,575,575,572,0,0,18,572,266,539,0,0,0,0,570,322,8,13,0,0,483,12,16,572,0,0,0,0,0,0,0,0,0,0,0,0],"split_type":[0,0,0,0,0,0,0,0,0,0,0,0,0,0,0,0,0,0,0,0,0,0,0,0,0,0,0,0,0,0,0,0,0,0,0,0,0,0,0],"sum_hessian":[3.86E2,2.02E2,1.84E2,1.14E2,8.8E1,6.2E1,1.22E2,5E1,6.4E1,2.8E1,6E1,2.5E1,3.7E1,5.3E1,6.9E1,2.7E1,1E0,3.9E1,2.1E1,6E0,1.9E1,9E0,2.8E1,2.8E1,1.1E1,7E0,1.4E1,1E0,5E0,2E0,1.7E1,2.6E1,2E0,1E1,1E0,1E0,6E0,4E0,1E1],"tree_param":{"num_deleted":"0","num_feature":"600","num_nodes":"39","size_leaf_vector":"1"}},{"base_weights":[2.299731E-3,-1.20447665E-1,1.2759238E-1,-1.7812954E-1,-4.3026283E-2,4.7263235E-2,1.6645652E-1,-2.0795239E-3,-1.4459325E-3,-8.553643E-4,-2.587677E-2,2.2264445E-2,6.0743913E-2,1.3264191E-3,1.8550995E-3,-3.5363123E-2,-8.253683E-3,8.388504E-3,3.0030776E-4,4.657155E-4,6.8842183E-4,-4.2957967E-4,-2.7196525E-4,2.853386E-4,-1.2007339E-2,1.7668232E-5,1.09739645E-4,2.8921366E-5,-3.0444935E-5,-1.7100998E-4,-8.137404E-5],"categories":[],"categories_nodes":[],"categories_segments":[],"categories_sizes":[],"default_left":[0,0,0,0,0,0,0,0,0,0,0,0,0,0,0,0,0,0,0,0,0,0,0,0,0,0,0,0,0,0,0],"id":5,"left_children":[1,3,5,7,9,11,13,-1,-1,-1,15,17,19,-1,-1,21,23,25,-1,-1,-1,-1,-1,27,29,-1,-1,-1,-1,-1,-1],"loss_changes":[5.967176E0,8.676348E-1,5.9154177E-1,8.194804E-2,5.9754044E-2,2.0215616E-2,5.850649E-2,0E0,0E0,0E0,1.00732185E-2,2.3344494E-3,1.4995486E-3,0E0,0E0,1.3126545E-3,7.4063486E-4,1.5181192E-4,0E0,0E0,0E0,0E0,0E0,7.824669E-5,1.762365E-4,0E0,0E0,0E0,0E0,0E0,0E0],"parents":[2147483647,0,0,1,1,2,2,3,3,4,4,5,5,6,6,10,10,11,11,12,12,15,15,16,16,17,17,23,23,24,24],"right_children":[2,4,6,8,10,12,14,-1,-1,-1,16,18,20,-1,-1,22,24,26,-1,-1,-1,-1,-1,28,30,-1,-1,-1,-1,-1,-1],"split_conditions":[2.6713917E-1,1.5715994E-1,3.560161E-1,7.737354E-2,1.9222316E-1,3.0379635E-1,4.283143E-1,-2.0795239E-3,-1.4459325E-3,-8.553643E-4,2.4697258E-1,2.840336E-1,3.2795018E-1,1.3264191E-3,1.8550995E-3,2.2371744E-1,4.3683544E-1,3.6778128E-1,3.0030776E-4,4.657155E-4,6.8842183E-4,-4.2957967E-4,-2.7196525E-4,2.0463303E-1,1.3126375E-1,1.7668232E-5,1.09739645E-4,2.8921366E-5,-3.0444935E-5,-1.7100998E-4,-8.137404E-5],"split_indices":[573,573,541,573,571,573,573,0,0,0,571,541,575,0,0,573,352,269,0,0,0,0,0,174,473,0,0,0,0,0,0],"split_type":[0,0,0,0,0,0,0,0,0,0,0,0,0,0,0,0,0,0,0,0,0,0,0,0,0,0,0,0,0,0,0],"sum_hessian":[3.86E2,1.95E2,1.91E2,1.11E2,8.4E1,6.3E1,1.28E2,5.6E1,5.5E1,2.3E1,6.1E1,2.3E1,4E1,4.9E1,7.9E1,3.9E1,2.2E1,9E0,1.4E1,1.7E1,2.3E1,1.8E1,2.1E1,7E0,1.5E1,3E0,6E0,4E0,3E0,5E0,1E1],"tree_param":{"num_deleted":"0","num_feature":"600","num_nodes":"31","size_leaf_vector":"1"}},{"base_weights":[1.293521E-3,-1.1543193E-1,1.3127588E-1,-1.7667045E-1,-3.982302E-2,5.0585654E-2,1.637928E-1,-2.0301698E-3,-1.4080385E-3,-8.017622E-2,-2.36899E-2,2.5998002E-2,6.0791332E-2,1.3312368E-3,1.8246389E-3,-3.7879578E-4,-8.4222143E-4,-3.23913E-2,-8.472012E-3,2.9793875E-2,1.09291315E-4,4.2015593E-4,6.5493776E-4,-3.757718E-4,-2.0897288E-2,1.97177E-3,-1.2643026E-2,3.1910435E-4,1.2101859E-4,-4.290238E-5,-2.1777059E-4,3.2133805E-5,-1.168708E-5,-1.7284657E-4,-7.201254E-5],"categories":[],"categories_nodes":[],"categories_segments":[],"categories_sizes":[],"default_left":[0,0,0,0,0,0,0,0,0,0,0,0,0,0,0,0,0,0,0,0,0,0,0,0,0,0,0,0,0,0,0,0,0,0,0],"id":6,"left_children":[1,3,5,7,9,11,13,-1,-1,15,17,19,21,-1,-1,-1,-1,23,25,27,-1,-1,-1,-1,29,31,33,-1,-1,-1,-1,-1,-1,-1,-1],"loss_changes":[5.6440573E0,9.004791E-1,4.535029E-1,7.3470116E-2,5.6041688E-2,1.14681125E-2,4.728818E-2,0E0,0E0,1.0879189E-3,8.332677E-3,6.4677E-4,4.2675436E-4,0E0,0E0,0E0,0E0,1.658611E-3,1.113958E-3,1.0062661E-4,0E0,0E0,0E0,0E0,1.2572808E-4,3.4949517E-5,3.3018552E-4,0E0,0E0,0E0,0E0,0E0,0E0,0E0,0E0],"parents":[2147483647,0,0,1,1,2,2,3,3,4,4,5,5,6,6,9,9,10,10,11,11,12,12,17,17,18,18,19,19,24,24,25,25,26,26],"right_children":[2,4,6,8,10,12,14,-1,-1,16,18,20,22,-1,-1,-1,-1,24,26,28,-1,-1,-1,-1,30,32,34,-1,-1,-1,-1,-1,-1,-1,-1],"split_conditions":[2.7072674E-1,1.5286343E-1,3.560161E-1,8.353971E-2,2.0996991E-1,3.0285633E-1,4.3058443E-1,-2.0301698E-3,-1.4080385E-3,3.7085178E-1,2.4130584E-1,4.9878827E-1,3.0955514E-1,1.3312368E-3,1.8246389E-3,-3.7879578E-4,-8.4222143E-4,2.6662472E-1,4.3683544E-1,5.032754E-1,1.09291315E-4,4.2015593E-4,6.5493776E-4,-3.757718E-4,1.6736789E-1,5.8971053E-1,2.9077473E-1,3.1910435E-4,1.2101859E-4,-4.290238E-5,-2.1777059E-4,3.2133805E-5,-1.168708E-5,-1.7284657E-4,-7.201254E-5],"split_indices":[481,573,541,573,573,575,573,0,0,59,573,165,541,0,0,0,0,570,352,7,0,0,0,0,1,59,568,0,0,0,0,0,0,0,0],"split_type":[0,0,0,0,0,0,0,0,0,0,0,0,0,0,0,0,0,0,0,0,0,0,0,0,0,0,0,0,0,0,0,0,0,0,0],"sum_hessian":[3.7E2,1.95E2,1.75E2,1.07E2,8.8E1,5.1E1,1.24E2,5.9E1,4.8E1,2.4E1,6.4E1,1.6E1,3.5E1,5E1,7.4E1,3E0,2.1E1,4E1,2.4E1,1.2E1,4E0,9E0,2.6E1,2.6E1,1.4E1,7E0,1.7E1,1E1,2E0,1E0,1.3E1,5E0,2E0,8E0,9E0],"tree_param":{"num_deleted":"0","num_feature":"600","num_nodes":"35","size_leaf_vector":"1"}},{"base_weights":[-4.8692147E-3,-1.2195704E-1,1.1992311E-1,-1.7423941E-1,-4.9308054E-2,4.426748E-2,1.6023986E-1,-2.058506E-3,-1.4682069E-3,-8.650723E-4,-2.6619704E-2,2.1215197E-2,5.909169E-2,1.3006655E-3,1.8021952E-3,-3.250034E-2,-7.91648E-3,8.194031E-3,3.1085858E-2,4.1193079E-4,6.3843175E-4,-3.9274758E-4,-2.2945732E-2,-1.0774431E-2,1.9220039E-3,2.7537644E-5,1.1249978E-4,8.960947E-5,3.202614E-4,-4.202619E-5,-2.3753537E-4,-1.3463959E-4,-6.289164E-5,2.6949445E-5,-1.9840895E-6],"categories":[],"categories_nodes":[],"categories_segments":[],"categories_sizes":[],"default_left":[0,0,0,0,0,0,0,0,0,0,0,0,0,0,0,0,0,0,0,0,0,0,0,0,0,0,0,0,0,0,0,0,0,0,0],"id":7,"left_children":[1,3,5,7,9,11,13,-1,-1,-1,15,17,19,-1,-1,21,23,25,27,-1,-1,-1,29,31,33,-1,-1,-1,-1,-1,-1,-1,-1,-1,-1],"loss_changes":[5.523222E0,7.320695E-1,5.510912E-1,6.7718506E-2,6.774819E-2,2.095893E-2,4.8298836E-2,0E0,0E0,0E0,5.5720136E-3,3.2155244E-3,6.86869E-4,0E0,0E0,1.687888E-3,4.1435903E-4,1.851474E-4,2.5070272E-5,0E0,0E0,0E0,1.878487E-4,4.801876E-5,7.0905135E-6,0E0,0E0,0E0,0E0,0E0,0E0,0E0,0E0,0E0,0E0],"parents":[2147483647,0,0,1,1,2,2,3,3,4,4,5,5,6,6,10,10,11,11,12,12,15,15,16,16,17,17,18,18,22,22,23,23,24,24],"right_children":[2,4,6,8,10,12,14,-1,-1,-1,16,18,20,-1,-1,22,24,26,28,-1,-1,-1,30,32,34,-1,-1,-1,-1,-1,-1,-1,-1,-1,-1],"split_conditions":[2.6471835E-1,1.4022867E-1,3.6172992E-1,7.235329E-2,2.020151E-1,3.0428138E-1,4.283143E-1,-2.058506E-3,-1.4682069E-3,-8.650723E-4,7.5472707E-1,2.840336E-1,3.0955514E-1,1.3006655E-3,1.8021952E-3,2.2995982E-1,5.1697844E-1,2.9755244E-1,6.2263988E-2,4.1193079E-4,6.3843175E-4,-3.9274758E-4,2.2786511E-1,2.9096144E-1,2.8362006E-1,2.7537644E-5,1.1249978E-4,8.960947E-5,3.202614E-4,-4.202619E-5,-2.3753537E-4,-1.3463959E-4,-6.289164E-5,2.6949445E-5,-1.9840895E-6],"split_indices":[573,573,573,573,575,573,573,0,0,0,583,541,541,0,0,573,436,450,12,0,0,0,11,570,0,0,0,0,0,0,0,0,0,0,0],"split_type":[0,0,0,0,0,0,0,0,0,0,0,0,0,0,0,0,0,0,0,0,0,0,0,0,0,0,0,0,0,0,0,0,0,0,0],"sum_hessian":[3.76E2,1.94E2,1.82E2,1.12E2,8.2E1,6.4E1,1.18E2,4.9E1,6.3E1,3E1,5.2E1,2.6E1,3.8E1,5E1,6.8E1,3.9E1,1.3E1,1.2E1,1.4E1,1E1,2.8E1,2.1E1,1.8E1,1E1,3E0,5E0,7E0,1E0,1.3E1,1E0,1.7E1,5E0,5E0,2E0,1E0],"tree_param":{"num_deleted":"0","num_feature":"600","num_nodes":"35","size_leaf_vector":"1"}},{"base_weights":[-3.1038813E-4,-1.1885343E-1,1.19488716E-1,-1.7393331E-1,-4.5087624E-2,4.1822474E-2,1.5891925E-1,-1.9868612E-3,-1.370533E-3,-8.585426E-4,-2.7049432E-2,2.0105632E-2,5.9862464E-4,1.3060486E-3,1.7861463E-3,-3.456117E-2,-1.0673485E-2,7.6136687E-3,2.9945267E-2,-3.9146325E-4,-2.324971E-4,-1.5886117E-2,-2.5373665E-3,1.8768907E-3,1.2398738E-4,8.537531E-5,3.0749655E-4,-1.7739074E-4,-7.745434E-5,1.9090325E-5,-5.078738E-5,-1.5567392E-5,2.5898005E-5],"categories":[],"categories_nodes":[],"categories_segments":[],"categories_sizes":[],"default_left":[0,0,0,0,0,0,0,0,0,0,0,0,0,0,0,0,0,0,0,0,0,0,0,0,0,0,0,0,0,0,0,0,0],"id":8,"left_children":[1,3,5,7,9,11,13,-1,-1,-1,15,17,-1,-1,-1,19,21,23,25,-1,-1,27,29,31,-1,-1,-1,-1,-1,-1,-1,-1,-1],"loss_changes":[5.3965125E0,7.6819324E-1,5.721512E-1,7.227397E-2,5.8712274E-2,2.4261579E-2,4.6380043E-2,0E0,0E0,0E0,6.888807E-3,3.5824142E-3,0E0,0E0,0E0,1.1644512E-3,8.07903E-4,3.8849213E-4,3.021583E-5,0E0,0E0,4.3615233E-5,1.1139503E-4,2.3614593E-5,0E0,0E0,0E0,0E0,0E0,0E0,0E0,0E0,0E0],"parents":[2147483647,0,0,1,1,2,2,3,3,4,4,5,5,6,6,10,10,11,11,15,15,16,16,17,17,18,18,21,21,22,22,23,23],"right_children":[2,4,6,8,10,12,14,-1,-1,-1,16,18,-1,-1,-1,20,22,24,26,-1,-1,28,30,32,-1,-1,-1,-1,-1,-1,-1,-1,-1],"split_conditions":[2.6471835E-1,1.4022867E-1,3.6172992E-1,8.624246E-2,1.9222316E-1,3.0603108E-1,4.2101765E-1,-1.9868612E-3,-1.370533E-3,-8.585426E-4,2.4130584E-1,2.8725964E-1,5.9862464E-4,1.3060486E-3,1.7861463E-3,2.2609687E-1,7.2279465E-1,5.352207E-1,1.6446087E-1,-3.9146325E-4,-2.324971E-4,4.9272266E-1,2.2940792E-1,2.8095576E-1,1.2398738E-4,8.537531E-5,3.0749655E-4,-1.7739074E-4,-7.745434E-5,1.9090325E-5,-5.078738E-5,-1.5567392E-5,2.5898005E-5],"split_indices":[573,573,573,573,571,575,571,0,0,0,573,571,0,0,0,571,554,478,7,0,0,556,9,17,0,0,0,0,0,0,0,0,0],"split_type":[0,0,0,0,0,0,0,0,0,0,0,0,0,0,0,0,0,0,0,0,0,0,0,0,0,0,0,0,0,0,0,0,0],"sum_hessian":[3.78E2,1.9E2,1.88E2,1.08E2,8.2E1,6.4E1,1.24E2,6.2E1,4.6E1,2.4E1,5.8E1,3E1,3.4E1,5.4E1,7E1,3.9E1,1.9E1,1.4E1,1.6E1,2.6E1,1.3E1,1.1E1,8E0,7E0,7E0,1E0,1.5E1,8E0,3E0,3E0,5E0,1E0,6E0],"tree_param":{"num_deleted":"0","num_feature":"600","num_nodes":"33","size_leaf_vector":"1"}},{"base_weights":[3.8606938E-4,-1.11880995E-1,1.2049768E-1,-1.6923608E-1,-4.0537216E-2,4.5333274E-2,1.5862796E-1,-1.9402623E-3,-1.3187849E-3,-8.127095E-2,-2.3620075E-2,2.4493052E-2,5.987903E-4,1.2713117E-3,1.7709082E-3,-8.2617876E-4,-2.3798831E-4,-3.2675996E-2,-7.823563E-3,7.570252E-3,2.9773496E-2,-4.0911924E-4,-2.6350963E-4,2.3535106E-3,-1.1161245E-2,1.0574857E-5,9.564926E-5,1.2880533E-4,3.1873405E-2,-1.5489608E-5,3.262083E-5,-1.4394136E-4,-6.8122295E-5,8.854151E-5,3.2706646E-4],"categories":[],"categories_nodes":[],"categories_segments":[],"categories_sizes":[],"default_left":[0,0,0,0,0,0,0,0,0,0,0,0,0,0,0,0,0,0,0,0,0,0,0,0,0,0,0,0,0,0,0,0,0,0,0],"id":9,"left_children":[1,3,5,7,9,11,13,-1,-1,15,17,19,-1,-1,-1,-1,-1,21,23,25,27,-1,-1,29,31,-1,-1,-1,33,-1,-1,-1,-1,-1,-1],"loss_changes":[5.191559E0,8.0743337E-1,5.25892E-1,7.628298E-2,6.0099214E-2,1.7934129E-2,4.9013376E-2,0E0,0E0,4.6491623E-5,9.042732E-3,2.276685E-3,0E0,0E0,0E0,0E0,0E0,1.0577254E-3,8.7546394E-4,9.3812036E-5,3.3440068E-4,0E0,0E0,2.9872575E-5,1.6908185E-4,0E0,0E0,0E0,5.5661425E-5,0E0,0E0,0E0,0E0,0E0,0E0],"parents":[2147483647,0,0,1,1,2,2,3,3,4,4,5,5,6,6,9,9,10,10,11,11,17,17,18,18,19,19,20,20,23,23,24,24,28,28],"right_children":[2,4,6,8,10,12,14,-1,-1,16,18,20,-1,-1,-1,-1,-1,22,24,26,28,-1,-1,30,32,-1,-1,-1,34,-1,-1,-1,-1,-1,-1],"split_conditions":[2.6713917E-1,1.5374637E-1,3.560161E-1,9.531027E-2,1.9400084E-1,3.1055447E-1,4.283143E-1,-1.9402623E-3,-1.3187849E-3,2.701949E-1,2.4697258E-1,2.7900332E-1,5.987903E-4,1.2713117E-3,1.7709082E-3,-8.2617876E-4,-2.3798831E-4,2.1357255E-1,4.2248455E-1,4.2479283E-1,2.1066548E-1,-4.0911924E-4,-2.6350963E-4,3.2330325E-1,2.5459757E-1,1.0574857E-5,9.564926E-5,1.2880533E-4,6.2263988E-2,-1.5489608E-5,3.262083E-5,-1.4394136E-4,-6.8122295E-5,8.854151E-5,3.2706646E-4],"split_indices":[573,571,511,571,571,573,573,0,0,10,571,571,0,0,0,0,0,571,322,209,74,0,0,16,571,0,0,0,12,0,0,0,0,0,0],"split_type":[0,0,0,0,0,0,0,0,0,0,0,0,0,0,0,0,0,0,0,0,0,0,0,0,0,0,0,0,0,0,0,0,0,0,0],"sum_hessian":[3.83E2,1.98E2,1.85E2,1.09E2,8.9E1,6.3E1,1.22E2,6.3E1,4.6E1,2.5E1,6.4E1,2.7E1,3.6E1,4.8E1,7.4E1,2.4E1,1E0,4E1,2.4E1,7E0,2E1,1.5E1,2.5E1,6E0,1.8E1,2E0,5E0,3E0,1.7E1,1E0,5E0,9E0,9E0,1E0,1.6E1],"tree_param":{"num_deleted":"0","num_feature":"600","num_nodes":"35","size_leaf_vector":"1"}},{"base_weights":[1.0931694E-3,-1.15415156E-1,1.2121785E-1,-1.6876395E-1,-4.036901E-2,4.621494E-2,1.5807034E-1,-1.9339387E-3,-1.3473108E-3,-7.891847E-4,-2.3633922E-2,2.175181E-2,6.000429E-2,1.3533541E-3,1.8275015E-3,-3.1927794E-2,-6.710643E-3,8.547455E-3,2.9984884E-2,4.332477E-4,6.7048304E-4,-4.0646753E-4,-2.566963E-4,-5.7809884E-5,-1.0800247E-2,1.5691667E-5,1.0968167E-4,3.1646952E-4,1.278762E-4,-3.8786606E-5,2.4990588E-5,-1.2255127E-4,-4.462987E-5],"categories":[],"categories_nodes":[],"categories_segments":[],"categories_sizes":[],"default_left":[0,0,0,0,0,0,0,0,0,0,0,0,0,0,0,0,0,0,0,0,0,0,0,0,0,0,0,0,0,0,0,0,0],"id":10,"left_children":[1,3,5,7,9,11,13,-1,-1,-1,15,17,19,-1,-1,21,23,25,27,-1,-1,-1,-1,29,31,-1,-1,-1,-1,-1,-1,-1,-1],"loss_changes":[5.4862404E0,7.8990793E-1,5.26155E-1,7.11782E-2,5.232565E-2,2.062127E-2,4.764843E-2,0E0,0E0,0E0,8.207314E-3,2.4615163E-3,1.9122809E-3,0E0,0E0,1.1392012E-3,5.7073205E-4,1.6860588E-4,2.4056062E-5,0E0,0E0,0E0,0E0,9.7617725E-5,6.516487E-5,0E0,0E0,0E0,0E0,0E0,0E0,0E0,0E0],"parents":[2147483647,0,0,1,1,2,2,3,3,4,4,5,5,6,6,10,10,11,11,12,12,15,15,16,16,17,17,18,18,23,23,24,24],"right_children":[2,4,6,8,10,12,14,-1,-1,-1,16,18,20,-1,-1,22,24,26,28,-1,-1,-1,-1,30,32,-1,-1,-1,-1,-1,-1,-1,-1],"split_conditions":[2.6713917E-1,1.5107523E-1,3.6443016E-1,8.353971E-2,2.0996991E-1,3.0428138E-1,4.3552324E-1,-1.9339387E-3,-1.3473108E-3,-7.891847E-4,2.4697258E-1,2.840336E-1,3.2256383E-1,1.3533541E-3,1.8275015E-3,2.1357255E-1,4.4464815E-1,3.6778128E-1,3.1219056E-1,4.332477E-4,6.7048304E-4,-4.0646753E-4,-2.566963E-4,4.5248237E-1,2.2195698E-1,1.5691667E-5,1.0968167E-4,3.1646952E-4,1.278762E-4,-3.8786606E-5,2.4990588E-5,-1.2255127E-4,-4.462987E-5],"split_indices":[573,541,541,573,573,573,571,0,0,0,571,541,573,0,0,571,352,269,50,0,0,0,0,149,503,0,0,0,0,0,0,0,0],"split_type":[0,0,0,0,0,0,0,0,0,0,0,0,0,0,0,0,0,0,0,0,0,0,0,0,0,0,0,0,0,0,0,0,0],"sum_hessian":[3.9E2,1.98E2,1.92E2,1.15E2,8.3E1,6.4E1,1.28E2,6.4E1,5.1E1,2.4E1,5.9E1,2.4E1,4E1,7E1,5.8E1,3.9E1,2E1,1E1,1.4E1,1.4E1,2.6E1,1.4E1,2.5E1,8E0,1.2E1,3E0,7E0,1.2E1,2E0,3E0,5E0,9E0,3E0],"tree_param":{"num_deleted":"0","num_feature":"600","num_nodes":"33","size_leaf_vector":"1"}},{"base_weights":[-1.884381E-3,-1.1130811E-1,1.2034846E-1,-1.6623737E-1,-4.085235E-2,4.9721375E-2,1.5615952E-1,-1.8822136E-3,-1.2913976E-3,-8.0689666E-4,-2.4772543E-2,2.671422E-2,6.26793E-2,1.2688373E-3,1.7436553E-3,-3.409349E-2,-8.5938135E-3,1.0667339E-4,3.0579058E-2,5.0769374E-4,7.5137994E-4,-4.1590704E-4,-2.6409706E-4,1.6288012E-3,-1.1369702E-2,3.2246526E-4,1.1492878E-4,2.5632917E-5,-1.5218257E-5,-1.4526866E-4,-6.247646E-5],"categories":[],"categories_nodes":[],"categories_segments":[],"categories_sizes":[],"default_left":[0,0,0,0,0,0,0,0,0,0,0,0,0,0,0,0,0,0,0,0,0,0,0,0,0,0,0,0,0,0,0],"id":11,"left_children":[1,3,5,7,9,11,13,-1,-1,-1,15,17,19,-1,-1,21,23,-1,25,-1,-1,-1,-1,27,29,-1,-1,-1,-1,-1,-1],"loss_changes":[4.8418336E0,7.323947E-1,4.2473388E-1,6.295729E-2,5.2450106E-2,1.5914947E-2,3.8104534E-2,0E0,0E0,0E0,9.056672E-3,1.100231E-3,1.675427E-3,0E0,0E0,1.1482723E-3,6.9956307E-4,0E0,2.0225346E-4,0E0,0E0,0E0,0E0,2.1566271E-5,2.1649338E-4,0E0,0E0,0E0,0E0,0E0,0E0],"parents":[2147483647,0,0,1,1,2,2,3,3,4,4,5,5,6,6,10,10,11,11,12,12,15,15,16,16,18,18,23,23,24,24],"right_children":[2,4,6,8,10,12,14,-1,-1,-1,16,18,20,-1,-1,22,24,-1,26,-1,-1,-1,-1,28,30,-1,-1,-1,-1,-1,-1],"split_conditions":[2.705135E-1,1.5374637E-1,3.8439038E-1,9.531027E-2,1.9400084E-1,3.0993775E-1,4.200125E-1,-1.8822136E-3,-1.2913976E-3,-8.0689666E-4,2.4697258E-1,2.7219763E-1,3.3777863E-1,1.2688373E-3,1.7436553E-3,2.1357255E-1,4.2248455E-1,1.0667339E-4,5.996045E-1,5.0769374E-4,7.5137994E-4,-4.1590704E-4,-2.6409706E-4,3.0784646E-1,2.5459757E-1,3.2246526E-4,1.1492878E-4,2.5632917E-5,-1.5218257E-5,-1.4526866E-4,-6.247646E-5],"split_indices":[511,511,543,571,571,575,571,0,0,0,571,570,575,0,0,571,322,0,59,0,0,0,0,19,571,0,0,0,0,0,0],"split_type":[0,0,0,0,0,0,0,0,0,0,0,0,0,0,0,0,0,0,0,0,0,0,0,0,0,0,0,0,0,0,0],"sum_hessian":[3.6E2,1.9E2,1.7E2,1.06E2,8.4E1,5.8E1,1.12E2,6.4E1,4.2E1,2.3E1,6.1E1,2.2E1,3.6E1,4.6E1,6.6E1,3.8E1,2.3E1,5E0,1.7E1,2.1E1,1.5E1,1.7E1,2.1E1,5E0,1.8E1,1.5E1,2E0,4E0,1E0,1E1,8E0],"tree_param":{"num_deleted":"0","num_feature":"600","num_nodes":"31","size_leaf_vector":"1"}},{"base_weights":[2.6163626E-3,-1.06509104E-1,1.21427335E-1,-1.6567269E-1,-3.7827745E-2,4.8117936E-2,1.5500878E-1,-1.9918624E-3,-1.3616742E-3,-7.9514924E-4,-2.1945285E-2,2.4793752E-2,5.7993975E-2,1.3108487E-3,1.7717595E-3,-3.0938324E-2,-1.7353683E-3,1.595733E-2,3.11508E-4,4.3026212E-4,6.439868E-4,-4.0917832E-4,-2.391934E-2,-6.4283516E-3,2.711147E-3,1.7355132E-4,6.910741E-5,-2.4472628E-4,-3.9370057E-5,-3.207809E-5,-7.810403E-5,4.091492E-5,-2.7937192E-5],"categories":[],"categories_nodes":[],"categories_segments":[],"categories_sizes":[],"default_left":[0,0,0,0,0,0,0,0,0,0,0,0,0,0,0,0,0,0,0,0,0,0,0,0,0,0,0,0,0,0,0,0,0],"id":12,"left_children":[1,3,5,7,9,11,13,-1,-1,-1,15,17,19,-1,-1,21,23,25,-1,-1,-1,-1,27,29,31,-1,-1,-1,-1,-1,-1,-1,-1],"loss_changes":[4.8749223E0,7.9016614E-1,4.3567157E-1,7.670426E-2,5.9167758E-2,1.1922434E-2,4.2005062E-2,0E0,0E0,0E0,1.2305219E-2,5.7021435E-4,1.0637343E-3,0E0,0E0,2.313435E-3,4.765115E-4,6.5169297E-6,0E0,0E0,0E0,0E0,2.3533031E-4,2.3906236E-5,1.0261387E-4,0E0,0E0,0E0,0E0,0E0,0E0,0E0,0E0],"parents":[2147483647,0,0,1,1,2,2,3,3,4,4,5,5,6,6,10,10,11,11,12,12,15,15,16,16,17,17,22,22,23,23,24,24],"right_children":[2,4,6,8,10,12,14,-1,-1,-1,16,18,20,-1,-1,22,24,26,-1,-1,-1,-1,28,30,32,-1,-1,-1,-1,-1,-1,-1,-1],"split_conditions":[2.7503946E-1,1.5374637E-1,3.6443016E-1,6.6494964E-2,2.02401E-1,3.0285633E-1,4.3495408E-1,-1.9918624E-3,-1.3616742E-3,-7.9514924E-4,2.4918331E-1,2.937566E-1,3.2178032E-1,1.3108487E-3,1.7717595E-3,2.1357255E-1,3.9523137E-1,5.424084E-1,3.11508E-4,4.3026212E-4,6.439868E-4,-4.0917832E-4,8.253099E-1,4.6083438E-1,5.2701145E-1,1.7355132E-4,6.910741E-5,-2.4472628E-4,-3.9370057E-5,-3.207809E-5,-7.810403E-5,4.091492E-5,-2.7937192E-5],"split_indices":[541,541,571,573,573,575,571,0,0,0,571,573,573,0,0,571,18,14,0,0,0,0,104,344,45,0,0,0,0,0,0,0,0],"split_type":[0,0,0,0,0,0,0,0,0,0,0,0,0,0,0,0,0,0,0,0,0,0,0,0,0,0,0,0,0,0,0,0,0],"sum_hessian":[3.74E2,1.95E2,1.79E2,1.04E2,9.1E1,5.7E1,1.22E2,4.6E1,5.8E1,2.4E1,6.7E1,1.8E1,3.9E1,6.2E1,6E1,4.6E1,2.1E1,9E0,9E0,1.4E1,2.5E1,1.7E1,2.9E1,1E1,1.1E1,7E0,2E0,2.8E1,1E0,4E0,6E0,9E0,2E0],"tree_param":{"num_deleted":"0","num_feature":"600","num_nodes":"33","size_leaf_vector":"1"}},{"base_weights":[-1.5235503E-3,-1.09439746E-1,1.2217877E-1,-1.6428007E-1,-4.3024693E-2,4.748034E-2,1.553274E-1,-1.9308908E-3,-1.3562148E-3,-8.2462747E-4,-2.4813734E-2,2.1126874E-2,5.9017695E-2,1.3176423E-3,1.7665726E-3,-3.3072934E-2,-5.402807E-3,9.450904E-3,2.6177286E-4,4.733663E-4,7.1390555E-4,-3.9521154E-4,-2.3359011E-4,-9.841035E-3,2.4846643E-3,1.040781E-4,1.8547325E-5,-1.2302672E-4,-4.9186794E-5,-4.1294843E-6,4.305822E-5],"categories":[],"categories_nodes":[],"categories_segments":[],"categories_sizes":[],"default_left":[0,0,0,0,0,0,0,0,0,0,0,0,0,0,0,0,0,0,0,0,0,0,0,0,0,0,0,0,0,0,0],"id":13,"left_children":[1,3,5,7,9,11,13,-1,-1,-1,15,17,19,-1,-1,21,23,25,-1,-1,-1,-1,-1,27,29,-1,-1,-1,-1,-1,-1],"loss_changes":[4.899282E0,7.0680785E-1,4.1604686E-1,6.215453E-2,6.259224E-2,1.5171796E-2,3.602934E-2,0E0,0E0,0E0,9.921391E-3,8.1403274E-4,1.9681603E-3,0E0,0E0,1.8328726E-3,7.2457973E-4,3.157812E-5,0E0,0E0,0E0,0E0,0E0,9.700877E-5,4.3994154E-5,0E0,0E0,0E0,0E0,0E0,0E0],"parents":[2147483647,0,0,1,1,2,2,3,3,4,4,5,5,6,6,10,10,11,11,12,12,15,15,16,16,17,17,23,23,24,24],"right_children":[2,4,6,8,10,12,14,-1,-1,-1,16,18,20,-1,-1,22,24,26,-1,-1,-1,-1,-1,28,30,-1,-1,-1,-1,-1,-1],"split_conditions":[2.705135E-1,1.4906137E-1,3.6443016E-1,8.1174694E-2,1.9222316E-1,3.0285633E-1,4.3552324E-1,-1.9308908E-3,-1.3562148E-3,-8.2462747E-4,2.4918331E-1,2.8725964E-1,3.3777863E-1,1.3176423E-3,1.7665726E-3,2.2334671E-1,2.4921496E-1,2.4918331E-1,2.6177286E-4,4.733663E-4,7.1390555E-4,-3.9521154E-4,-2.3359011E-4,2.6221508E-1,4.279841E-1,1.040781E-4,1.8547325E-5,-1.2302672E-4,-4.9186794E-5,-4.1294843E-6,4.305822E-5],"split_indices":[541,575,571,541,541,545,571,0,0,0,571,571,575,0,0,571,574,1,0,0,0,0,0,571,18,0,0,0,0,0,0],"split_type":[0,0,0,0,0,0,0,0,0,0,0,0,0,0,0,0,0,0,0,0,0,0,0,0,0,0,0,0,0,0,0],"sum_hessian":[3.65E2,1.95E2,1.7E2,1.06E2,8.9E1,5.3E1,1.17E2,5E1,5.6E1,2.7E1,6.2E1,1.7E1,3.6E1,5.9E1,5.8E1,4.3E1,1.9E1,6E0,1.1E1,2.1E1,1.5E1,2.4E1,1.9E1,1.2E1,7E0,5E0,1E0,7E0,5E0,3E0,4E0],"tree_param":{"num_deleted":"0","num_feature":"600","num_nodes":"31","size_leaf_vector":"1"}},{"base_weights":[-6.917681E-4,-1.1431998E-1,1.1420282E-1,-1.6428894E-1,-4.4046864E-2,3.9463222E-2,1.5031995E-1,-1.9045664E-3,-1.3556343E-3,-7.860456E-4,-2.4887947E-2,1.647199E-2,5.4333158E-2,1.2203999E-3,1.691805E-3,-3.4843754E-2,-1.3140159E-2,4.7259307E-3,2.536347E-4,3.626562E-4,5.90125E-4,-3.5931554E-4,-1.4164165E-4,-1.8380323E-2,-4.7999187E-3,1.5774108E-3,8.8183755E-5,-1.8995498E-4,-4.8839298E-5,1.7062624E-5,-6.435322E-5,-1.4961063E-5,2.2302142E-5],"categories":[],"categories_nodes":[],"categories_segments":[],"categories_sizes":[],"default_left":[0,0,0,0,0,0,0,0,0,0,0,0,0,0,0,0,0,0,0,0,0,0,0,0,0,0,0,0,0,0,0,0,0],"id":14,"left_children":[1,3,5,7,9,11,13,-1,-1,-1,15,17,19,-1,-1,21,23,25,-1,-1,-1,-1,-1,27,29,31,-1,-1,-1,-1,-1,-1,-1],"loss_changes":[4.7260075E0,6.318519E-1,4.7995615E-1,5.3859234E-2,4.9024478E-2,1.9617714E-2,4.389167E-2,0E0,0E0,0E0,5.5070445E-3,2.49113E-3,9.034723E-4,0E0,0E0,9.842962E-5,1.0043816E-3,1.4071155E-4,0E0,0E0,0E0,0E0,0E0,3.1767413E-5,1.2802286E-4,1.9387857E-5,0E0,0E0,0E0,0E0,0E0,0E0,0E0],"parents":[2147483647,0,0,1,1,2,2,3,3,4,4,5,5,6,6,10,10,11,11,12,12,15,15,16,16,17,17,23,23,24,24,25,25],"right_children":[2,4,6,8,10,12,14,-1,-1,-1,16,18,20,-1,-1,22,24,26,-1,-1,-1,-1,-1,28,30,32,-1,-1,-1,-1,-1,-1,-1],"split_conditions":[2.618947E-1,1.5286343E-1,3.6172992E-1,7.407958E-2,1.9400084E-1,3.0428138E-1,4.200125E-1,-1.9045664E-3,-1.3556343E-3,-7.860456E-4,2.3114593E-1,2.7900332E-1,3.0955514E-1,1.2203999E-3,1.691805E-3,3.3999473E-1,2.515177E-1,2.9755244E-1,2.536347E-4,3.626562E-4,5.90125E-4,-3.5931554E-4,-1.4164165E-4,3.1831723E-1,2.2940792E-1,3.2330325E-1,8.8183755E-5,-1.8995498E-4,-4.8839298E-5,1.7062624E-5,-6.435322E-5,-1.4961063E-5,2.2302142E-5],"split_indices":[573,573,573,573,571,573,571,0,0,0,571,571,541,0,0,0,571,450,0,0,0,0,0,0,9,16,0,0,0,0,0,0,0],"split_type":[0,0,0,0,0,0,0,0,0,0,0,0,0,0,0,0,0,0,0,0,0,0,0,0,0,0,0,0,0,0,0,0,0],"sum_hessian":[3.6E2,1.81E2,1.79E2,1.05E2,7.6E1,5.9E1,1.2E2,5.2E1,5.3E1,2.6E1,5E1,2.4E1,3.5E1,5.1E1,6.9E1,2.6E1,2.4E1,1.1E1,1.3E1,9E0,2.6E1,2.4E1,2E0,1.4E1,1E1,7E0,4E0,1.3E1,1E0,2E0,8E0,1E0,6E0],"tree_param":{"num_deleted":"0","num_feature":"600","num_nodes":"33","size_leaf_vector":"1"}},{"base_weights":[3.7305816E-3,-1.11103386E-1,1.1196609E-1,-1.6572163E-1,-4.6059445E-2,4.6326466E-2,1.5184312E-1,-1.97452E-3,-1.3943394E-3,-8.207212E-4,-2.6587533E-2,2.5201181E-2,6.4638875E-2,1.2850007E-3,1.7340382E-3,-3.5248656E-2,-1.4437793E-2,9.308046E-3,3.4891903E-2,5.0303206E-4,7.3429925E-4,-4.1035004E-4,-2.689762E-4,-1.8589016E-2,-4.9923956E-3,1.5313724E-3,1.3043245E-4,1.3825863E-4,3.6307212E-4,-6.171589E-5,-1.9833233E-4,1.694878E-5,-7.14517E-5,-1.488626E-5,2.4330973E-5],"categories":[],"categories_nodes":[],"categories_segments":[],"categories_sizes":[],"default_left":[0,0,0,0,0,0,0,0,0,0,0,0,0,0,0,0,0,0,0,0,0,0,0,0,0,0,0,0,0,0,0,0,0,0,0],"id":15,"left_children":[1,3,5,7,9,11,13,-1,-1,-1,15,17,19,-1,-1,21,23,25,27,-1,-1,-1,-1,29,31,33,-1,-1,-1,-1,-1,-1,-1,-1,-1],"loss_changes":[4.63607E0,6.3538504E-1,4.9552798E-1,5.4211855E-2,5.6721687E-2,2.6998281E-2,3.7609577E-2,0E0,0E0,0E0,5.3839907E-3,5.2197985E-3,1.2212396E-3,0E0,0E0,4.4256076E-4,8.874447E-4,4.157374E-4,1.5394948E-4,0E0,0E0,0E0,0E0,1.402474E-4,1.4167598E-4,1.9961219E-5,0E0,0E0,0E0,0E0,0E0,0E0,0E0,0E0,0E0],"parents":[2147483647,0,0,1,1,2,2,3,3,4,4,5,5,6,6,10,10,11,11,12,12,15,15,16,16,17,17,18,18,23,23,24,24,25,25],"right_children":[2,4,6,8,10,12,14,-1,-1,-1,16,18,20,-1,-1,22,24,26,28,-1,-1,-1,-1,30,32,34,-1,-1,-1,-1,-1,-1,-1,-1,-1],"split_conditions":[2.6471835E-1,1.4022867E-1,3.8439038E-1,6.367696E-2,1.8283634E-1,3.1707108E-1,4.3495408E-1,-1.97452E-3,-1.3943394E-3,-8.207212E-4,2.357571E-1,2.8937262E-1,3.3777863E-1,1.2850007E-3,1.7340382E-3,2.1357255E-1,2.515177E-1,1.4047468E-1,9.255393E-2,5.0303206E-4,7.3429925E-4,-4.1035004E-4,-2.689762E-4,2.39634E-1,2.4470745E-1,3.2330325E-1,1.3043245E-4,1.3825863E-4,3.6307212E-4,-6.171589E-5,-1.9833233E-4,1.694878E-5,-7.14517E-5,-1.488626E-5,2.4330973E-5],"split_indices":[573,573,573,571,571,573,571,0,0,0,573,573,575,0,0,571,571,148,12,0,0,0,0,161,6,16,0,0,0,0,0,0,0,0,0],"split_type":[0,0,0,0,0,0,0,0,0,0,0,0,0,0,0,0,0,0,0,0,0,0,0,0,0,0,0,0,0,0,0,0,0,0,0],"sum_hessian":[3.71E2,1.8E2,1.91E2,9.7E1,8.3E1,7.3E1,1.18E2,4.1E1,5.6E1,2.8E1,5.5E1,3.5E1,3.8E1,6E1,5.8E1,3.1E1,2.4E1,1.4E1,2.1E1,1.7E1,2.1E1,1.6E1,1.5E1,1.6E1,8E0,5E0,9E0,2E0,1.9E1,2E0,1.4E1,2E0,6E0,1E0,4E0],"tree_param":{"num_deleted":"0","num_feature":"600","num_nodes":"35","size_leaf_vector":"1"}},{"base_weights":[-1.3642433E-3,-1.0518924E-1,1.1497801E-1,-1.6125587E-1,-4.091895E-2,4.7905173E-2,1.4868867E-1,-1.9190947E-3,-1.3215733E-3,-8.065684E-4,-2.2953758E-2,2.1806803E-2,6.1423026E-2,1.3045344E-3,1.7212951E-3,-3.294354E-2,-6.851141E-3,1.0774515E-4,2.6553337E-4,4.71261E-4,7.248716E-4,-3.8369466E-2,-2.0901274E-4,9.201497E-4,-1.1280001E-2,-3.906553E-4,-1.0831922E-4,2.9291297E-5,-2.8256029E-5,-1.5212693E-4,-5.4457225E-5],"categories":[],"categories_nodes":[],"categories_segments":[],"categories_sizes":[],"default_left":[0,0,0,0,0,0,0,0,0,0,0,0,0,0,0,0,0,0,0,0,0,0,0,0,0,0,0,0,0,0,0],"id":16,"left_children":[1,3,5,7,9,11,13,-1,-1,-1,15,17,19,-1,-1,21,23,-1,-1,-1,-1,25,-1,27,29,-1,-1,-1,-1,-1,-1],"loss_changes":[4.251906E0,6.636374E-1,3.6821437E-1,6.294322E-2,6.0971722E-2,1.8769816E-2,2.4564505E-2,0E0,0E0,0E0,9.747721E-3,8.1356894E-4,2.4367273E-3,0E0,0E0,1.6809627E-3,8.7082817E-4,0E0,0E0,0E0,0E0,5.6046993E-5,0E0,8.352798E-5,2.8426666E-4,0E0,0E0,0E0,0E0,0E0,0E0],"parents":[2147483647,0,0,1,1,2,2,3,3,4,4,5,5,6,6,10,10,11,11,12,12,15,15,16,16,21,21,23,23,24,24],"right_children":[2,4,6,8,10,12,14,-1,-1,-1,16,18,20,-1,-1,22,24,-1,-1,-1,-1,26,-1,28,30,-1,-1,-1,-1,-1,-1],"split_conditions":[2.797553E-1,1.4022867E-1,3.8439038E-1,7.742049E-2,1.951636E-1,3.0428138E-1,4.3751076E-1,-1.9190947E-3,-1.3215733E-3,-8.065684E-4,2.4697258E-1,2.8725964E-1,3.3542967E-1,1.3045344E-3,1.7212951E-3,2.3247008E-1,4.3683544E-1,1.0774515E-4,2.6553337E-4,4.71261E-4,7.248716E-4,3.3999473E-1,-2.0901274E-4,1.6544321E-1,2.4772833E-1,-3.906553E-4,-1.0831922E-4,2.9291297E-5,-2.8256029E-5,-1.5212693E-4,-5.4457225E-5],"split_indices":[542,573,573,571,573,573,571,0,0,0,571,571,573,0,0,573,352,0,0,0,0,0,0,174,519,0,0,0,0,0,0],"split_type":[0,0,0,0,0,0,0,0,0,0,0,0,0,0,0,0,0,0,0,0,0,0,0,0,0,0,0,0,0,0,0],"sum_hessian":[3.5E2,1.85E2,1.65E2,9.8E1,8.7E1,5.6E1,1.09E2,4.5E1,5.3E1,2.6E1,6.1E1,2E1,3.6E1,6.5E1,4.4E1,3.7E1,2.4E1,7E0,1.3E1,1.8E1,1.8E1,2.4E1,1.3E1,9E0,1.5E1,2.3E1,1E0,6E0,3E0,8E0,7E0],"tree_param":{"num_deleted":"0","num_feature":"600","num_nodes":"31","size_leaf_vector":"1"}},{"base_weights":[5.1444047E-3,-1.0173447E-1,1.1867397E-1,-1.5872449E-1,-3.7197985E-2,4.505204E-2,1.4672455E-1,-1.915947E-3,-1.3601815E-3,-7.473573E-2,-2.0519936E-2,2.8074231E-2,5.847483E-4,1.1237027E-3,1.6013007E-3,-7.594202E-4,-2.1686069E-4,-3.1454794E-2,-5.727978E-3,1.5315549E-4,3.349635E-4,-3.528892E-4,-1.9532783E-4,-1.4090591E-2,-1.6784035E-3,-1.5691701E-4,-5.6578017E-5,-6.6186534E-5,2.9653147E-5],"categories":[],"categories_nodes":[],"categories_segments":[],"categories_sizes":[],"default_left":[0,0,0,0,0,0,0,0,0,0,0,0,0,0,0,0,0,0,0,0,0,0,0,0,0,0,0,0,0],"id":17,"left_children":[1,3,5,7,9,11,13,-1,-1,15,17,19,-1,-1,-1,-1,-1,21,23,-1,-1,-1,-1,25,27,-1,-1,-1,-1],"loss_changes":[4.404549E0,6.8186975E-1,3.5685396E-1,4.782939E-2,5.418545E-2,9.752832E-3,4.0494442E-2,0E0,0E0,8.092821E-5,1.0009948E-2,1.1472832E-3,0E0,0E0,0E0,0E0,0E0,9.5628947E-4,9.2457107E-4,0E0,0E0,0E0,0E0,3.2735872E-5,4.7844893E-4,0E0,0E0,0E0,0E0],"parents":[2147483647,0,0,1,1,2,2,3,3,4,4,5,5,6,6,9,9,10,10,11,11,17,17,18,18,23,23,24,24],"right_children":[2,4,6,8,10,12,14,-1,-1,16,18,20,-1,-1,-1,-1,-1,22,24,-1,-1,-1,-1,26,28,-1,-1,-1,-1],"split_conditions":[2.7503946E-1,1.433652E-1,3.560161E-1,6.5272264E-2,1.9586612E-1,3.1707108E-1,4.2020005E-1,-1.915947E-3,-1.3601815E-3,2.7115682E-1,2.4130584E-1,2.937566E-1,5.847483E-4,1.1237027E-3,1.6013007E-3,-7.594202E-4,-2.1686069E-4,2.3114593E-1,2.5286338E-1,1.5315549E-4,3.349635E-4,-3.528892E-4,-1.9532783E-4,7.92717E-1,3.9523137E-1,-1.5691701E-4,-5.6578017E-5,-6.6186534E-5,2.9653147E-5],"split_indices":[511,573,541,571,571,573,573,0,0,10,573,573,0,0,0,0,0,571,570,0,0,0,0,88,18,0,0,0,0],"split_type":[0,0,0,0,0,0,0,0,0,0,0,0,0,0,0,0,0,0,0,0,0,0,0,0,0,0,0,0,0],"sum_hessian":[3.61E2,1.86E2,1.75E2,9.8E1,8.8E1,4.9E1,1.26E2,3.7E1,6.1E1,2.6E1,6.2E1,2.3E1,2.6E1,3.8E1,8.8E1,2.5E1,1E0,3.5E1,2.7E1,8E0,1.5E1,2.5E1,1E1,8E0,1.9E1,6E0,2E0,9E0,1E1],"tree_param":{"num_deleted":"0","num_feature":"600","num_nodes":"29","size_leaf_vector":"1"}},{"base_weights":[-4.4581658E-4,-1.0199877E-1,1.11829095E-1,-1.5493788E-1,-3.999356E-2,4.60225E-2,1.4601542E-1,-1.7946112E-3,-1.2554867E-3,-7.613507E-4,-2.3253605E-2,2.4838164E-2,5.758254E-2,1.1931441E-3,1.6389388E-3,-3.2658856E-2,-6.898848E-3,7.7161254E-5,2.7876766E-2,4.2939401E-4,6.3815794E-4,-3.9758638E-4,-2.4003893E-2,-1.1530872E-2,4.471703E-5,3.0471265E-4,1.399901E-4,-2.496358E-4,-9.924576E-5,-1.3538802E-4,-4.8072514E-5,-3.3506025E-5,4.789221E-5],"categories":[],"categories_nodes":[],"categories_segments":[],"categories_sizes":[],"default_left":[0,0,0,0,0,0,0,0,0,0,0,0,0,0,0,0,0,0,0,0,0,0,0,0,0,0,0,0,0,0,0,0,0],"id":18,"left_children":[1,3,5,7,9,11,13,-1,-1,-1,15,17,19,-1,-1,21,23,-1,25,-1,-1,-1,27,29,31,-1,-1,-1,-1,-1,-1,-1,-1],"loss_changes":[4.3213053E0,6.4702106E-1,3.982234E-1,5.4585934E-2,5.4495245E-2,1.3997942E-2,3.6774874E-2,0E0,0E0,0E0,9.773031E-3,1.0335492E-3,9.10759E-4,0E0,0E0,1.5650243E-3,8.045846E-4,0E0,2.9354915E-4,0E0,0E0,0E0,3.5993755E-5,1.3742386E-4,1.9324696E-4,0E0,0E0,0E0,0E0,0E0,0E0,0E0,0E0],"parents":[2147483647,0,0,1,1,2,2,3,3,4,4,5,5,6,6,10,10,11,11,12,12,15,15,16,16,18,18,22,22,23,23,24,24],"right_children":[2,4,6,8,10,12,14,-1,-1,-1,16,18,20,-1,-1,22,24,-1,26,-1,-1,-1,28,30,32,-1,-1,-1,-1,-1,-1,-1,-1],"split_conditions":[2.7072674E-1,1.4906137E-1,3.6443016E-1,9.982467E-2,1.9766171E-1,3.0993775E-1,4.2101765E-1,-1.7946112E-3,-1.2554867E-3,-7.613507E-4,2.426106E-1,2.7900332E-1,3.2795018E-1,1.1931441E-3,1.6389388E-3,2.1357255E-1,2.4921496E-1,7.7161254E-5,9.3022096E-1,4.2939401E-4,6.3815794E-4,-3.9758638E-4,6.205601E-1,2.6745903E-1,4.2455336E-1,3.0471265E-4,1.399901E-4,-2.496358E-4,-9.924576E-5,-1.3538802E-4,-4.8072514E-5,-3.3506025E-5,4.789221E-5],"split_indices":[511,575,571,572,575,575,571,0,0,0,571,571,575,0,0,571,574,0,432,0,0,0,376,571,18,0,0,0,0,0,0,0,0],"split_type":[0,0,0,0,0,0,0,0,0,0,0,0,0,0,0,0,0,0,0,0,0,0,0,0,0,0,0,0,0,0,0,0,0],"sum_hessian":[3.77E2,1.98E2,1.79E2,1.06E2,9.2E1,6.2E1,1.17E2,5.5E1,5.1E1,2.8E1,6.4E1,2.3E1,3.9E1,5E1,6.7E1,4E1,2.4E1,4E0,1.9E1,1.4E1,2.5E1,2E1,2E1,1.4E1,1E1,1.5E1,4E0,1.8E1,2E0,1E1,4E0,6E0,4E0],"tree_param":{"num_deleted":"0","num_feature":"600","num_nodes":"33","size_leaf_vector":"1"}},{"base_weights":[-3.1966628E-3,-1.0549107E-1,1.1153347E-1,-1.5490879E-1,-3.610457E-2,4.582718E-2,1.4691076E-1,-1.758804E-3,-1.1802422E-3,-7.0517465E-2,-2.1494161E-2,2.9030526E-2,5.7955157E-2,1.2811417E-3,1.7409333E-3,-7.1918353E-4,-1.9148528E-4,-2.919755E-2,-7.2113005E-3,1.6443271E-2,3.510993E-4,4.6988172E-4,6.6803244E-4,-3.671814E-4,-2.2696373E-4,-1.066776E-2,1.7193641E-3,1.8566816E-4,4.5915443E-5,-1.477817E-4,-4.710078E-5,-1.9540936E-5,2.6572894E-5],"categories":[],"categories_nodes":[],"categories_segments":[],"categories_sizes":[],"default_left":[0,0,0,0,0,0,0,0,0,0,0,0,0,0,0,0,0,0,0,0,0,0,0,0,0,0,0,0,0,0,0,0,0],"id":19,"left_children":[1,3,5,7,9,11,13,-1,-1,15,17,19,21,-1,-1,-1,-1,23,25,27,-1,-1,-1,-1,-1,29,31,-1,-1,-1,-1,-1,-1],"loss_changes":[4.3072343E0,6.5961814E-1,3.9540768E-1,6.665063E-2,3.971278E-2,1.0947511E-2,3.4921408E-2,0E0,0E0,3.4996122E-4,6.281005E-3,1.5653241E-3,2.5732815E-4,0E0,0E0,0E0,0E0,1.0245554E-3,6.9744827E-4,1.9159424E-4,0E0,0E0,0E0,0E0,0E0,3.222099E-4,2.9310593E-5,0E0,0E0,0E0,0E0,0E0,0E0],"parents":[2147483647,0,0,1,1,2,2,3,3,4,4,5,5,6,6,9,9,10,10,11,11,12,12,17,17,18,18,19,19,25,25,26,26],"right_children":[2,4,6,8,10,12,14,-1,-1,16,18,20,22,-1,-1,-1,-1,24,26,28,-1,-1,-1,-1,-1,30,32,-1,-1,-1,-1,-1,-1],"split_conditions":[2.7072674E-1,1.5374637E-1,3.7243477E-1,9.531027E-2,2.0771825E-1,3.1467137E-1,4.520502E-1,-1.758804E-3,-1.1802422E-3,9.665743E-1,2.426106E-1,3.4155294E-1,3.3777863E-1,1.2811417E-3,1.7409333E-3,-7.1918353E-4,-1.9148528E-4,2.1357255E-1,3.0366665E-1,4.7735196E-1,3.510993E-4,4.6988172E-4,6.6803244E-4,-3.671814E-4,-2.2696373E-4,2.5459757E-1,2.738722E-1,1.8566816E-4,4.5915443E-5,-1.477817E-4,-4.710078E-5,-1.9540936E-5,2.6572894E-5],"split_indices":[511,541,575,541,575,575,571,0,0,28,571,147,575,0,0,0,0,571,170,21,0,0,0,0,0,571,16,0,0,0,0,0,0],"split_type":[0,0,0,0,0,0,0,0,0,0,0,0,0,0,0,0,0,0,0,0,0,0,0,0,0,0,0,0,0,0,0,0,0],"sum_hessian":[3.65E2,1.93E2,1.72E2,1.12E2,8.1E1,6.1E1,1.11E2,6.9E1,4.3E1,2.3E1,5.8E1,2.7E1,3.4E1,6.9E1,4.2E1,2.2E1,1E0,3.7E1,2.1E1,1E1,1.7E1,1.8E1,1.6E1,1.5E1,2.2E1,1.5E1,6E0,8E0,2E0,8E0,7E0,1E0,5E0],"tree_param":{"num_deleted":"0","num_feature":"600","num_nodes":"33","size_leaf_vector":"1"}},{"base_weights":[2.3144041E-3,-1.0199593E-1,1.1053795E-1,-1.5191762E-1,-3.677875E-2,4.5591943E-2,1.4343232E-1,-1.7269173E-3,-1.1730378E-3,-7.4720365E-4,-2.1498468E-2,2.6528502E-2,5.8786117E-4,1.1442427E-3,1.5986593E-3,-2.9058784E-2,-7.415374E-3,1.3184044E-2,3.4387616E-4,-3.7676282E-4,-2.3514202E-2,1.1876324E-3,-1.2082819E-2,8.425333E-3,1.8161171E-4,-2.4230486E-4,-9.707097E-5,-3.8555114E-5,2.2999644E-5,-1.4902433E-4,-5.369658E-5,9.134339E-5,1.7311424E-5],"categories":[],"categories_nodes":[],"categories_segments":[],"categories_sizes":[],"default_left":[0,0,0,0,0,0,0,0,0,0,0,0,0,0,0,0,0,0,0,0,0,0,0,0,0,0,0,0,0,0,0,0,0],"id":20,"left_children":[1,3,5,7,9,11,13,-1,-1,-1,15,17,-1,-1,-1,19,21,23,-1,-1,25,27,29,31,-1,-1,-1,-1,-1,-1,-1,-1,-1],"loss_changes":[4.278454E0,6.2277293E-1,3.9082336E-1,5.812168E-2,4.7673106E-2,1.4538184E-2,4.034233E-2,0E0,0E0,0E0,6.38582E-3,2.48315E-3,0E0,0E0,0E0,1.025293E-3,9.378935E-4,1.3120263E-4,0E0,0E0,3.1817704E-5,5.935439E-5,2.0390679E-4,2.215692E-5,0E0,0E0,0E0,0E0,0E0,0E0,0E0,0E0,0E0],"parents":[2147483647,0,0,1,1,2,2,3,3,4,4,5,5,6,6,10,10,11,11,15,15,16,16,17,17,20,20,21,21,22,22,23,23],"right_children":[2,4,6,8,10,12,14,-1,-1,-1,16,18,-1,-1,-1,20,22,24,-1,-1,26,28,30,32,-1,-1,-1,-1,-1,-1,-1,-1,-1],"split_conditions":[2.705135E-1,1.5374637E-1,3.6443016E-1,9.531027E-2,1.9400084E-1,3.1164473E-1,4.200125E-1,-1.7269173E-3,-1.1730378E-3,-7.4720365E-4,2.426106E-1,3.3975813E-1,5.8786117E-4,1.1442427E-3,1.5986593E-3,2.1357255E-1,4.2572775E-1,3.0629376E-1,3.4387616E-4,-3.7676282E-4,3.8508496E-1,1.8333738E-1,7.496511E-1,5.8473074E-1,1.8161171E-4,-2.4230486E-4,-9.707097E-5,-3.8555114E-5,2.2999644E-5,-1.4902433E-4,-5.369658E-5,9.134339E-5,1.7311424E-5],"split_indices":[511,571,541,541,571,541,571,0,0,0,571,117,0,0,0,571,352,510,0,0,560,0,298,13,0,0,0,0,0,0,0,0,0],"split_type":[0,0,0,0,0,0,0,0,0,0,0,0,0,0,0,0,0,0,0,0,0,0,0,0,0,0,0,0,0,0,0,0,0],"sum_hessian":[3.77E2,1.92E2,1.85E2,1.08E2,8.4E1,6.3E1,1.22E2,6.5E1,4.3E1,2.3E1,6.1E1,2.7E1,3.6E1,4.7E1,7.5E1,3.9E1,2.2E1,1.1E1,1.6E1,1.3E1,2.6E1,8E0,1.4E1,7E0,4E0,2.4E1,2E0,1E0,7E0,9E0,5E0,6E0,1E0],"tree_param":{"num_deleted":"0","num_feature":"600","num_nodes":"33","size_leaf_vector":"1"}},{"base_weights":[4.993591E-3,-1.0195472E-1,1.11915484E-1,-1.5430921E-1,-3.8799927E-2,4.185404E-2,1.4110035E-1,-1.7666441E-3,-1.2276768E-3,-7.748474E-4,-1.9127732E-2,2.2172056E-2,5.2719302E-2,1.10218E-3,1.566963E-3,-3.0286828E-2,-7.3310435E-3,9.342061E-5,2.6399426E-2,3.874986E-4,5.808944E-4,-3.4612478E-4,-2.0913979E-4,-1.2586727E-2,-1.9456502E-3,2.8428025E-4,1.3206623E-4,-1.6290815E-4,-6.026223E-5,2.3608281E-5,-5.5574474E-5],"categories":[],"categories_nodes":[],"categories_segments":[],"categories_sizes":[],"default_left":[0,0,0,0,0,0,0,0,0,0,0,0,0,0,0,0,0,0,0,0,0,0,0,0,0,0,0,0,0,0,0],"id":21,"left_children":[1,3,5,7,9,11,13,-1,-1,-1,15,17,19,-1,-1,21,23,-1,25,-1,-1,-1,-1,27,29,-1,-1,-1,-1,-1,-1],"loss_changes":[4.322449E0,6.189296E-1,3.805492E-1,5.0938368E-2,6.472622E-2,1.1020556E-2,4.6787262E-2,0E0,0E0,0E0,7.5447466E-3,9.465916E-4,4.496798E-4,0E0,0E0,4.924275E-4,8.2462805E-4,0E0,5.2767806E-5,0E0,0E0,0E0,0E0,2.6633823E-4,2.6198622E-4,0E0,0E0,0E0,0E0,0E0,0E0],"parents":[2147483647,0,0,1,1,2,2,3,3,4,4,5,5,6,6,10,10,11,11,12,12,15,15,16,16,18,18,23,23,24,24],"right_children":[2,4,6,8,10,12,14,-1,-1,-1,16,18,20,-1,-1,22,24,-1,26,-1,-1,-1,-1,28,30,-1,-1,-1,-1,-1,-1],"split_conditions":[2.797553E-1,1.3585891E-1,3.6172992E-1,7.898438E-2,1.9222316E-1,3.0428138E-1,4.2658296E-1,-1.7666441E-3,-1.2276768E-3,-7.748474E-4,2.3901515E-1,2.840336E-1,3.2178032E-1,1.10218E-3,1.566963E-3,2.5286338E-1,2.5379202E-1,9.342061E-5,7.8906965E-1,3.874986E-4,5.808944E-4,-3.4612478E-4,-2.0913979E-4,7.913206E-1,4.2572775E-1,2.8428025E-4,1.3206623E-4,-1.6290815E-4,-6.026223E-5,2.3608281E-5,-5.5574474E-5],"split_indices":[542,573,573,573,541,573,573,0,0,0,573,541,573,0,0,540,573,0,418,0,0,0,0,582,352,0,0,0,0,0,0],"split_type":[0,0,0,0,0,0,0,0,0,0,0,0,0,0,0,0,0,0,0,0,0,0,0,0,0,0,0,0,0,0,0],"sum_hessian":[3.76E2,1.88E2,1.88E2,1.02E2,8.6E1,5.6E1,1.32E2,5.7E1,4.5E1,2.8E1,5.8E1,2.1E1,3.5E1,4.7E1,8.5E1,2.9E1,2.9E1,6E0,1.5E1,1.2E1,2.3E1,1.8E1,1.1E1,1.4E1,1.5E1,1.2E1,3E0,8E0,6E0,7E0,8E0],"tree_param":{"num_deleted":"0","num_feature":"600","num_nodes":"31","size_leaf_vector":"1"}},{"base_weights":[-3.5276453E-4,-9.7140975E-2,1.0930528E-1,-1.4822955E-1,-3.2756917E-2,4.3919668E-2,1.4022557E-1,-1.681221E-3,-1.1502189E-3,-5.9897687E-2,-1.4559066E-2,2.9996378E-2,5.5450754E-4,1.1657546E-3,1.5798932E-3,-7.305347E-4,-3.9709348E-4,-2.1103777E-2,-2.9720945E-4,1.5264064E-2,3.332046E-2,-4.636578E-5,-2.2420395E-2,-7.1608294E-5,2.8934777E-3,4.3795702E-5,1.6348218E-4,7.8769175E-5,3.4156966E-4,-8.190011E-5,-2.3053856E-4,-5.3174795E-6,3.97422E-5],"categories":[],"categories_nodes":[],"categories_segments":[],"categories_sizes":[],"default_left":[0,0,0,0,0,0,0,0,0,0,0,0,0,0,0,0,0,0,0,0,0,0,0,0,0,0,0,0,0,0,0,0,0],"id":22,"left_children":[1,3,5,7,9,11,13,-1,-1,15,17,19,-1,-1,-1,-1,-1,21,23,25,27,-1,29,-1,31,-1,-1,-1,-1,-1,-1,-1,-1],"loss_changes":[3.916425E0,6.398454E-1,3.4360266E-1,5.266595E-2,4.2591467E-2,7.488057E-3,3.0735493E-2,0E0,0E0,6.394863E-3,5.034075E-3,8.625947E-4,0E0,0E0,0E0,0E0,0E0,6.982442E-4,4.149137E-4,1.100509E-5,1.9918755E-4,0E0,1.1767633E-4,0E0,5.0236507E-5,0E0,0E0,0E0,0E0,0E0,0E0,0E0,0E0],"parents":[2147483647,0,0,1,1,2,2,3,3,4,4,5,5,6,6,9,9,10,10,11,11,17,17,18,18,19,19,20,20,22,22,24,24],"right_children":[2,4,6,8,10,12,14,-1,-1,16,18,20,-1,-1,-1,-1,-1,22,24,26,28,-1,30,-1,32,-1,-1,-1,-1,-1,-1,-1,-1],"split_conditions":[2.7503946E-1,1.58463E-1,3.8439038E-1,9.531027E-2,2.1078545E-1,3.1707108E-1,4.3380782E-1,-1.681221E-3,-1.1502189E-3,1.8283634E-1,2.535088E-1,4.8449722E-1,5.5450754E-4,1.1657546E-3,1.5798932E-3,-7.305347E-4,-3.9709348E-4,1.189324E-2,5.056582E-1,2.372459E-1,1.6446087E-1,-4.636578E-5,6.144349E-3,-7.1608294E-5,1.1390054E-1,4.3795702E-5,1.6348218E-4,7.8769175E-5,3.4156966E-4,-8.190011E-5,-2.3053856E-4,-5.3174795E-6,3.97422E-5],"split_indices":[541,511,573,541,571,573,573,0,0,571,573,25,0,0,0,0,0,320,29,9,7,0,350,0,594,0,0,0,0,0,0,0,0],"split_type":[0,0,0,0,0,0,0,0,0,0,0,0,0,0,0,0,0,0,0,0,0,0,0,0,0,0,0,0,0,0,0,0,0],"sum_hessian":[3.67E2,1.95E2,1.72E2,1.08E2,8.7E1,5.6E1,1.16E2,6.5E1,4.3E1,3.4E1,5.3E1,2.7E1,2.9E1,5.3E1,6.3E1,1.9E1,1.5E1,3.6E1,1.7E1,6E0,2.1E1,3E0,3.3E1,5E0,1.2E1,1E0,5E0,1E0,2E1,2E0,3.1E1,3E0,9E0],"tree_param":{"num_deleted":"0","num_feature":"600","num_nodes":"33","size_leaf_vector":"1"}},{"base_weights":[1.2461193E-3,-9.933626E-2,1.066627E-1,-1.5313016E-1,-4.0532954E-2,4.3043356E-2,1.394155E-1,-1.8244481E-3,-1.2867296E-3,-7.4886513E-4,-2.3525365E-2,2.6018234E-2,5.8764134E-2,1.22758776E-1,1.6653192E-3,-3.4374952E-2,-1.2622066E-2,7.866461E-3,3.0602694E-2,4.3888073E-4,6.517483E-4,9.978925E-4,1.302765E-3,-3.8889842E-4,-2.4784735E-4,-1.7075805E-2,-3.0338939E-3,7.0049364E-6,1.0138367E-4,1.343125E-4,3.225848E-4,-1.8039666E-4,-4.636834E-5,-5.194982E-5,2.5870278E-5],"categories":[],"categories_nodes":[],"categories_segments":[],"categories_sizes":[],"default_left":[0,0,0,0,0,0,0,0,0,0,0,0,0,0,0,0,0,0,0,0,0,0,0,0,0,0,0,0,0,0,0,0,0,0,0],"id":23,"left_children":[1,3,5,7,9,11,13,-1,-1,-1,15,17,19,21,-1,23,25,27,29,-1,-1,-1,-1,-1,-1,31,33,-1,-1,-1,-1,-1,-1,-1,-1],"loss_changes":[4.060961E0,6.1379194E-1,3.8365293E-1,4.965377E-2,5.3744033E-2,1.5868194E-2,3.511238E-2,0E0,0E0,0E0,7.2553754E-3,2.5053956E-3,2.8668344E-4,8.1408024E-4,0E0,4.2168796E-4,1.4001024E-3,1.2314139E-4,3.059674E-4,0E0,0E0,0E0,0E0,0E0,0E0,1.9211089E-4,1.5920724E-4,0E0,0E0,0E0,0E0,0E0,0E0,0E0,0E0],"parents":[2147483647,0,0,1,1,2,2,3,3,4,4,5,5,6,6,10,10,11,11,12,12,13,13,15,15,16,16,17,17,18,18,25,25,26,26],"right_children":[2,4,6,8,10,12,14,-1,-1,-1,16,18,20,22,-1,24,26,28,30,-1,-1,-1,-1,-1,-1,32,34,-1,-1,-1,-1,-1,-1,-1,-1],"split_conditions":[2.662848E-1,1.4522125E-1,3.8439038E-1,6.367696E-2,1.9222316E-1,3.1806692E-1,4.471096E-1,-1.8244481E-3,-1.2867296E-3,-7.4886513E-4,2.2609687E-1,2.8041303E-1,3.281925E-1,4.0349078E-1,1.6653192E-3,2.1357255E-1,2.5459757E-1,6.8961525E-1,9.255393E-2,4.3888073E-4,6.517483E-4,9.978925E-4,1.302765E-3,-3.8889842E-4,-2.4784735E-4,6.205603E-1,3.155933E-1,7.0049364E-6,1.0138367E-4,1.343125E-4,3.225848E-4,-1.8039666E-4,-4.636834E-5,-5.194982E-5,2.5870278E-5],"split_indices":[573,575,573,571,571,573,571,0,0,0,571,573,573,573,0,571,571,148,12,0,0,0,0,0,0,346,169,0,0,0,0,0,0,0,0],"split_type":[0,0,0,0,0,0,0,0,0,0,0,0,0,0,0,0,0,0,0,0,0,0,0,0,0,0,0,0,0,0,0,0,0,0,0],"sum_hessian":[3.81E2,1.95E2,1.86E2,1.01E2,9.4E1,6.4E1,1.22E2,4.3E1,5.8E1,3E1,6.4E1,3.2E1,3.2E1,7.9E1,4.3E1,3.1E1,3.3E1,7E0,2.5E1,1.2E1,2E1,2.3E1,5.6E1,1.9E1,1.2E1,2.2E1,1.1E1,2E0,5E0,3E0,2.2E1,2E1,2E0,8E0,3E0],"tree_param":{"num_deleted":"0","num_feature":"600","num_nodes":"35","size_leaf_vector":"1"}},{"base_weights":[-3.052047E-3,-1.035242E-1,1.0224617E-1,-1.5102911E-1,-3.915268E-2,3.7865E-2,1.3676497E-1,-1.790803E-3,-1.2592371E-3,-7.463247E-4,-2.3969939E-2,1.6616208E-2,5.0117467E-2,1.0831702E-3,1.5314812E-3,-3.5064306E-2,-1.4128402E-2,5.700993E-3,2.4240634E-4,3.4933994E-4,5.437825E-4,-3.653479E-4,-1.7107718E-4,-1.789337E-2,-3.3031404E-3,1.1900216E-3,8.753112E-5,-1.8848541E-4,-4.605919E-5,1.6316275E-5,-4.740786E-5,-1.2922138E-5,1.9449113E-5],"categories":[],"categories_nodes":[],"categories_segments":[],"categories_sizes":[],"default_left":[0,0,0,0,0,0,0,0,0,0,0,0,0,0,0,0,0,0,0,0,0,0,0,0,0,0,0,0,0,0,0,0,0],"id":24,"left_children":[1,3,5,7,9,11,13,-1,-1,-1,15,17,19,-1,-1,21,23,25,-1,-1,-1,-1,-1,27,29,31,-1,-1,-1,-1,-1,-1,-1],"loss_changes":[4.073128E0,5.9650564E-1,4.1262507E-1,5.7028294E-2,4.3998912E-2,1.6610697E-2,4.027152E-2,0E0,0E0,0E0,6.1649233E-3,2.025582E-3,8.1747025E-4,0E0,0E0,1.1430681E-4,1.3266257E-3,1.5479987E-4,0E0,0E0,0E0,0E0,0E0,2.3048092E-4,7.867966E-5,1.3756129E-5,0E0,0E0,0E0,0E0,0E0,0E0,0E0],"parents":[2147483647,0,0,1,1,2,2,3,3,4,4,5,5,6,6,10,10,11,11,12,12,15,15,16,16,17,17,23,23,24,24,25,25],"right_children":[2,4,6,8,10,12,14,-1,-1,-1,16,18,20,-1,-1,22,24,26,-1,-1,-1,-1,-1,28,30,32,-1,-1,-1,-1,-1,-1,-1],"split_conditions":[2.6471835E-1,1.4022867E-1,3.6000985E-1,7.729325E-2,1.8283634E-1,3.0379635E-1,4.283143E-1,-1.790803E-3,-1.2592371E-3,-7.463247E-4,2.2494417E-1,2.840336E-1,3.0955514E-1,1.0831702E-3,1.5314812E-3,6.7661405E-1,2.5459757E-1,2.797553E-1,2.4240634E-4,3.4933994E-4,5.437825E-4,-3.653479E-4,-1.7107718E-4,6.53672E-1,3.6992528E-2,2.8095576E-1,8.753112E-5,-1.8848541E-4,-4.605919E-5,1.6316275E-5,-4.740786E-5,-1.2922138E-5,1.9449113E-5],"split_indices":[573,573,541,572,571,573,573,0,0,0,571,541,541,0,0,172,571,542,0,0,0,0,0,344,113,17,0,0,0,0,0,0,0],"split_type":[0,0,0,0,0,0,0,0,0,0,0,0,0,0,0,0,0,0,0,0,0,0,0,0,0,0,0,0,0,0,0,0,0],"sum_hessian":[3.83E2,1.96E2,1.87E2,1.12E2,8.4E1,6.6E1,1.21E2,5E1,6.2E1,2.4E1,6E1,2.5E1,4.1E1,4.7E1,7.4E1,2.7E1,3.3E1,1.1E1,1.4E1,1.1E1,3E1,2.4E1,3E0,2.4E1,9E0,5E0,6E0,2.2E1,2E0,2E0,7E0,1E0,4E0],"tree_param":{"num_deleted":"0","num_feature":"600","num_nodes":"33","size_leaf_vector":"1"}},{"base_weights":[2.9877112E-3,-9.623872E-2,1.0531556E-1,-1.4339791E-1,-3.49639E-2,4.3414705E-2,1.3690397E-1,-1.6552029E-3,-1.1202836E-3,-6.950773E-2,-1.9100826E-2,2.6929248E-2,5.813839E-2,1.20081E-1,1.6355086E-3,-7.2365045E-4,-3.498689E-4,-2.7696751E-2,-3.6946575E-3,1.4153725E-2,3.113033E-2,4.4899038E-4,6.516098E-4,9.864981E-4,1.2788689E-3,-3.3108803E-4,-1.954331E-4,-7.986527E-3,1.7134304E-3,1.5465848E-4,5.9368213E-5,1.2439847E-4,3.226402E-4,-9.888369E-5,-4.1196494E-5,2.9501085E-5,-2.5677482E-5],"categories":[],"categories_nodes":[],"categories_segments":[],"categories_sizes":[],"default_left":[0,0,0,0,0,0,0,0,0,0,0,0,0,0,0,0,0,0,0,0,0,0,0,0,0,0,0,0,0,0,0,0,0,0,0,0,0],"id":25,"left_children":[1,3,5,7,9,11,13,-1,-1,15,17,19,21,23,-1,-1,-1,25,27,29,31,-1,-1,-1,-1,-1,-1,33,35,-1,-1,-1,-1,-1,-1,-1,-1],"loss_changes":[3.939589E0,5.642514E-1,3.675282E-1,5.8487654E-2,4.6345845E-2,1.4454335E-2,3.6844015E-2,0E0,0E0,1.3136864E-4,7.975917E-3,1.330534E-3,2.3546815E-4,9.343624E-4,0E0,0E0,0E0,1.0738913E-3,5.47533E-4,1.5998026E-5,1.0718033E-4,0E0,0E0,0E0,0E0,0E0,0E0,5.486788E-5,6.581399E-5,0E0,0E0,0E0,0E0,0E0,0E0,0E0,0E0],"parents":[2147483647,0,0,1,1,2,2,3,3,4,4,5,5,6,6,9,9,10,10,11,11,12,12,13,13,17,17,18,18,19,19,20,20,27,27,28,28],"right_children":[2,4,6,8,10,12,14,-1,-1,16,18,20,22,24,-1,-1,-1,26,28,30,32,-1,-1,-1,-1,-1,-1,34,36,-1,-1,-1,-1,-1,-1,-1,-1],"split_conditions":[2.7503946E-1,1.5286343E-1,3.8439038E-1,9.531027E-2,1.9586612E-1,3.1707108E-1,4.520502E-1,-1.6552029E-3,-1.1202836E-3,1.9222316E-1,2.4918331E-1,2.937566E-1,3.3542967E-1,4.0349078E-1,1.6355086E-3,-7.2365045E-4,-3.498689E-4,2.2609687E-1,3.9523137E-1,5.424084E-1,9.255393E-2,4.4899038E-4,6.516098E-4,9.864981E-4,1.2788689E-3,-3.3108803E-4,-1.954331E-4,2.8362006E-1,5.2701145E-1,1.5465848E-4,5.9368213E-5,1.2439847E-4,3.226402E-4,-9.888369E-5,-4.1196494E-5,2.9501085E-5,-2.5677482E-5],"split_indices":[541,573,573,571,571,573,571,0,0,571,571,573,573,573,0,0,0,571,18,14,12,0,0,0,0,0,0,570,45,0,0,0,0,0,0,0,0],"split_type":[0,0,0,0,0,0,0,0,0,0,0,0,0,0,0,0,0,0,0,0,0,0,0,0,0,0,0,0,0,0,0,0,0,0,0,0,0],"sum_hessian":[3.86E2,1.96E2,1.9E2,1.1E2,8.6E1,6.5E1,1.25E2,6.2E1,4.8E1,2.6E1,6E1,3.2E1,3.3E1,8E1,4.5E1,2.3E1,3E0,3.8E1,2.2E1,9E0,2.3E1,1.4E1,1.9E1,2.5E1,5.5E1,2.1E1,1.7E1,1.2E1,1E1,7E0,2E0,2E0,2.1E1,7E0,5E0,8E0,2E0],"tree_param":{"num_deleted":"0","num_feature":"600","num_nodes":"37","size_leaf_vector":"1"}},{"base_weights":[-1.340165E-3,-1.008671E-1,1.0094354E-1,-1.4924549E-1,-4.1626368E-2,3.710458E-2,1.347126E-1,-1.7751809E-3,-1.2649603E-3,-7.4518635E-4,-2.3262182E-2,1.6915984E-2,4.8794836E-2,1.1663937E-3,1.5540863E-3,-3.274715E-2,-1.2607672E-2,3.7966669E-3,2.4058308E-2,3.783005E-4,5.6913926E-4,-3.6753181E-4,-2.2850627E-4,-1.6119098E-2,-4.6751946E-3,1.230078E-3,7.33903E-5,2.5320056E-4,1.0150711E-4,-1.9094112E-4,-9.64169E-5,2.5347768E-5,-5.7579444E-5,-1.2651532E-5,1.856809E-5],"categories":[],"categories_nodes":[],"categories_segments":[],"categories_sizes":[],"default_left":[0,0,0,0,0,0,0,0,0,0,0,0,0,0,0,0,0,0,0,0,0,0,0,0,0,0,0,0,0,0,0,0,0,0,0],"id":26,"left_children":[1,3,5,7,9,11,13,-1,-1,-1,15,17,19,-1,-1,21,23,25,27,-1,-1,-1,-1,29,31,33,-1,-1,-1,-1,-1,-1,-1,-1,-1],"loss_changes":[3.736056E0,5.268581E-1,3.85198E-1,4.314971E-2,4.96099E-2,1.4279224E-2,2.6010275E-2,0E0,0E0,0E0,5.2463654E-3,2.2512185E-3,1.4079064E-3,0E0,0E0,3.0989386E-4,7.045609E-4,8.189032E-5,2.3749657E-5,0E0,0E0,0E0,0E0,1.8203771E-4,9.266107E-5,1.3296015E-5,0E0,0E0,0E0,0E0,0E0,0E0,0E0,0E0,0E0],"parents":[2147483647,0,0,1,1,2,2,3,3,4,4,5,5,6,6,10,10,11,11,12,12,15,15,16,16,17,17,18,18,23,23,24,24,25,25],"right_children":[2,4,6,8,10,12,14,-1,-1,-1,16,18,20,-1,-1,22,24,26,28,-1,-1,-1,-1,30,32,34,-1,-1,-1,-1,-1,-1,-1,-1,-1],"split_conditions":[2.6471835E-1,1.3765506E-1,3.560161E-1,6.367696E-2,1.9222316E-1,3.0285633E-1,4.3751076E-1,-1.7751809E-3,-1.2649603E-3,-7.4518635E-4,2.3114593E-1,2.7900332E-1,3.2795018E-1,1.1663937E-3,1.5540863E-3,2.1357255E-1,2.5459757E-1,1.957057E-1,5.926896E-1,3.783005E-4,5.6913926E-4,-3.6753181E-4,-2.2850627E-4,2.6175812E-1,1.7709926E-1,3.2330325E-1,7.33903E-5,2.5320056E-4,1.0150711E-4,-1.9094112E-4,-9.64169E-5,2.5347768E-5,-5.7579444E-5,-1.2651532E-5,1.856809E-5],"split_indices":[573,545,541,571,571,575,571,0,0,0,571,541,575,0,0,571,571,23,194,0,0,0,0,62,2,16,0,0,0,0,0,0,0,0,0],"split_type":[0,0,0,0,0,0,0,0,0,0,0,0,0,0,0,0,0,0,0,0,0,0,0,0,0,0,0,0,0,0,0,0,0,0,0],"sum_hessian":[3.65E2,1.85E2,1.8E2,1.01E2,8.4E1,6.3E1,1.17E2,4.2E1,5.9E1,2.9E1,5.5E1,2.4E1,3.9E1,6.6E1,5.1E1,2.8E1,2.7E1,9E0,1.5E1,1.9E1,2E1,1.8E1,1E1,1.8E1,9E0,6E0,3E0,1.3E1,2E0,1.1E1,7E0,1E0,8E0,1E0,5E0],"tree_param":{"num_deleted":"0","num_feature":"600","num_nodes":"35","size_leaf_vector":"1"}},{"base_weights":[-1.362455E-3,-1.0015602E-1,1.0057462E-1,-1.4656356E-1,-3.9632928E-2,3.9531846E-2,1.3455294E-1,-1.7398826E-3,-1.2252528E-3,-7.3707383E-4,-2.1912374E-2,1.5582041E-2,5.195881E-2,1.148702E-3,1.5534771E-3,-3.561986E-4,-1.4853507E-2,4.474036E-3,2.2689108E-2,4.1763316E-4,6.2615005E-4,-1.973217E-2,-6.3022524E-3,2.0480326E-3,6.975633E-5,1.1010818E-4,2.469111E-4,-2.0275003E-4,-3.352076E-5,-7.6533186E-5,-3.3572314E-6,6.5080326E-6,2.4767636E-5],"categories":[],"categories_nodes":[],"categories_segments":[],"categories_sizes":[],"default_left":[0,0,0,0,0,0,0,0,0,0,0,0,0,0,0,0,0,0,0,0,0,0,0,0,0,0,0,0,0,0,0,0,0],"id":27,"left_children":[1,3,5,7,9,11,13,-1,-1,-1,15,17,19,-1,-1,-1,21,23,25,-1,-1,27,29,31,-1,-1,-1,-1,-1,-1,-1,-1,-1],"loss_changes":[3.8671618E0,5.418931E-1,3.8669157E-1,5.119872E-2,5.0313294E-2,1.9726373E-2,3.1680346E-2,0E0,0E0,0E0,5.0829593E-3,1.8721204E-3,2.274029E-3,0E0,0E0,0E0,1.5443908E-3,5.2471383E-5,7.8831334E-5,0E0,0E0,1.5432853E-4,1.264094E-4,2.5813624E-6,0E0,0E0,0E0,0E0,0E0,0E0,0E0,0E0,0E0],"parents":[2147483647,0,0,1,1,2,2,3,3,4,4,5,5,6,6,10,10,11,11,12,12,16,16,17,17,18,18,21,21,22,22,23,23],"right_children":[2,4,6,8,10,12,14,-1,-1,-1,16,18,20,-1,-1,-1,22,24,26,-1,-1,28,30,32,-1,-1,-1,-1,-1,-1,-1,-1,-1],"split_conditions":[2.6471835E-1,1.4522125E-1,3.8439038E-1,7.729325E-2,1.9222316E-1,3.0285633E-1,4.365809E-1,-1.7398826E-3,-1.2252528E-3,-7.3707383E-4,2.1803674E-1,2.7900332E-1,3.3542967E-1,1.148702E-3,1.5534771E-3,-3.561986E-4,2.4918331E-1,2.797553E-1,2.1066548E-1,4.1763316E-4,6.2615005E-4,8.253099E-1,2.7643898E-1,5.0735223E-1,6.975633E-5,1.1010818E-4,2.469111E-4,-2.0275003E-4,-3.352076E-5,-7.6533186E-5,-3.3572314E-6,6.5080326E-6,2.4767636E-5],"split_indices":[573,545,573,542,571,575,571,0,0,0,571,571,573,0,0,0,571,542,74,0,0,104,572,29,0,0,0,0,0,0,0,0,0],"split_type":[0,0,0,0,0,0,0,0,0,0,0,0,0,0,0,0,0,0,0,0,0,0,0,0,0,0,0,0,0,0,0,0,0],"sum_hessian":[3.82E2,1.94E2,1.88E2,1.09E2,8.5E1,6.8E1,1.2E2,4.8E1,6.1E1,2.8E1,5.7E1,2.4E1,4.4E1,6.5E1,5.5E1,1.8E1,3.9E1,1E1,1.4E1,2.5E1,1.9E1,2.4E1,1.5E1,6E0,4E0,3E0,1.1E1,2.3E1,1E0,1.2E1,3E0,2E0,4E0],"tree_param":{"num_deleted":"0","num_feature":"600","num_nodes":"33","size_leaf_vector":"1"}},{"base_weights":[-2.0876306E-3,-9.138808E-2,1.00882806E-1,-1.3880846E-1,-3.2817412E-2,4.225438E-2,1.3677417E-1,-1.598914E-3,-1.0573916E-3,-6.6262425E-4,-1.944906E-2,2.5916394E-2,5.6869064E-2,1.1970437E-3,1.5952876E-3,-2.7113708E-2,-5.225549E-3,1.2441781E-2,3.2088164E-2,4.4702977E-4,6.5199856E-4,-3.5033913E-4,-2.1416042E-2,-1.2679588E-2,-1.4103809E-3,1.5009675E-4,5.8447956E-3,3.2812657E-4,8.436873E-5,-5.890168E-5,-2.1786644E-4,-1.4382169E-4,-5.047897E-5,-5.2814812E-5,2.6174288E-5,6.725095E-5,1.1617988E-5],"categories":[],"categories_nodes":[],"categories_segments":[],"categories_sizes":[],"default_left":[0,0,0,0,0,0,0,0,0,0,0,0,0,0,0,0,0,0,0,0,0,0,0,0,0,0,0,0,0,0,0,0,0,0,0,0,0],"id":28,"left_children":[1,3,5,7,9,11,13,-1,-1,-1,15,17,19,-1,-1,21,23,25,27,-1,-1,-1,29,31,33,-1,35,-1,-1,-1,-1,-1,-1,-1,-1,-1,-1],"loss_changes":[3.3655062E0,5.3982353E-1,3.5194385E-1,5.8390856E-2,3.8503587E-2,1.4285274E-2,2.1687508E-2,0E0,0E0,0E0,6.944502E-3,2.3451187E-3,5.3138286E-4,0E0,0E0,1.1450313E-3,6.6463876E-4,1.1555583E-4,1.0013953E-4,0E0,0E0,0E0,2.7029775E-5,3.1348784E-5,2.7888885E-4,0E0,1.27989915E-5,0E0,0E0,0E0,0E0,0E0,0E0,0E0,0E0,0E0,0E0],"parents":[2147483647,0,0,1,1,2,2,3,3,4,4,5,5,6,6,10,10,11,11,12,12,15,15,16,16,17,17,18,18,22,22,23,23,24,24,26,26],"right_children":[2,4,6,8,10,12,14,-1,-1,-1,16,18,20,-1,-1,22,24,26,28,-1,-1,-1,30,32,34,-1,36,-1,-1,-1,-1,-1,-1,-1,-1,-1,-1],"split_conditions":[2.705135E-1,1.58463E-1,3.8649887E-1,9.531027E-2,2.020151E-1,3.1806692E-1,4.520502E-1,-1.598914E-3,-1.0573916E-3,-6.6262425E-4,2.4284302E-1,2.937566E-1,3.3777863E-1,1.1970437E-3,1.5952876E-3,2.1357255E-1,2.5286338E-1,4.795652E-1,5.032754E-1,4.4702977E-4,6.5199856E-4,-3.5033913E-4,2.0515526E-2,2.9909712E-1,3.9523137E-1,1.5009675E-4,2.703985E-1,3.2812657E-4,8.436873E-5,-5.890168E-5,-2.1786644E-4,-1.4382169E-4,-5.047897E-5,-5.2814812E-5,2.6174288E-5,6.725095E-5,1.1617988E-5],"split_indices":[541,541,573,571,575,573,571,0,0,0,573,573,575,0,0,571,570,52,7,0,0,0,48,90,18,0,0,0,0,0,0,0,0,0,0,0,0],"split_type":[0,0,0,0,0,0,0,0,0,0,0,0,0,0,0,0,0,0,0,0,0,0,0,0,0,0,0,0,0,0,0,0,0,0,0,0,0],"sum_hessian":[3.64E2,1.95E2,1.69E2,1.07E2,8.8E1,6.5E1,1.04E2,6.3E1,4.4E1,2.4E1,6.4E1,3.2E1,3.3E1,6.3E1,4.1E1,4.1E1,2.3E1,1.1E1,2.1E1,1.6E1,1.7E1,1.5E1,2.6E1,7E0,1.6E1,7E0,4E0,2E1,1E0,1E0,2.5E1,5E0,2E0,8E0,8E0,3E0,1E0],"tree_param":{"num_deleted":"0","num_feature":"600","num_nodes":"37","size_leaf_vector":"1"}},{"base_weights":[1.2542134E-4,-9.695608E-2,9.37213E-2,-1.417946E-1,-3.7264876E-2,3.6323316E-2,1.3086809E-1,-1.7077771E-3,-1.1624487E-3,-6.952401E-4,-2.271758E-2,1.592308E-2,4.8741736E-2,1.1405493E-3,1.5384001E-3,-2.726553E-2,-6.476485E-3,2.705795E-3,2.3057295E-2,3.760694E-4,5.600928E-4,-3.3827178E-4,-2.2073558E-2,-9.319153E-5,-1.1330694E-3,-1.4445304E-3,4.961524E-3,1.0627264E-4,2.55006E-4,-1.2336398E-4,-2.3182401E-4,1.6150276E-5,-2.9108747E-5,-3.0365783E-5,6.2902764E-6,2.4277984E-5,6.8883E-5],"categories":[],"categories_nodes":[],"categories_segments":[],"categories_sizes":[],"default_left":[0,0,0,0,0,0,0,0,0,0,0,0,0,0,0,0,0,0,0,0,0,0,0,0,0,0,0,0,0,0,0,0,0,0,0,0,0],"id":29,"left_children":[1,3,5,7,9,11,13,-1,-1,-1,15,17,19,-1,-1,21,23,25,27,-1,-1,-1,29,-1,31,33,35,-1,-1,-1,-1,-1,-1,-1,-1,-1,-1],"loss_changes":[3.4801028E0,4.9789178E-1,4.11016E-1,5.9382677E-2,3.690181E-2,1.8984303E-2,2.8028965E-2,0E0,0E0,0E0,4.1075107E-3,2.8607557E-3,1.777947E-3,0E0,0E0,7.863641E-4,2.020945E-4,1.1951119E-4,3.364049E-4,0E0,0E0,0E0,1.6327947E-5,0E0,3.4014633E-5,1.841611E-5,2.233198E-5,0E0,0E0,0E0,0E0,0E0,0E0,0E0,0E0,0E0,0E0],"parents":[2147483647,0,0,1,1,2,2,3,3,4,4,5,5,6,6,10,10,11,11,12,12,15,15,16,16,17,17,18,18,22,22,24,24,25,25,26,26],"right_children":[2,4,6,8,10,12,14,-1,-1,-1,16,18,20,-1,-1,22,24,26,28,-1,-1,-1,30,-1,32,34,36,-1,-1,-1,-1,-1,-1,-1,-1,-1,-1],"split_conditions":[2.5563425E-1,1.4820589E-1,3.6427927E-1,8.1151545E-2,1.9766171E-1,3.0285633E-1,4.490777E-1,-1.7077771E-3,-1.1624487E-3,-6.952401E-4,2.5441396E-1,2.7900332E-1,3.2795018E-1,1.1405493E-3,1.5384001E-3,2.2232625E-1,3.9778608E-1,5.244975E-1,2.438532E-1,3.760694E-4,5.600928E-4,-3.3827178E-4,3.341272E-2,-9.319153E-5,2.2940792E-1,2.1676613E-1,4.8876363E-1,1.0627264E-4,2.55006E-4,-1.2336398E-4,-2.3182401E-4,1.6150276E-5,-2.9108747E-5,-3.0365783E-5,6.2902764E-6,2.4277984E-5,6.8883E-5],"split_indices":[575,575,575,541,575,575,572,0,0,0,572,541,575,0,0,572,14,29,13,0,0,0,83,0,9,28,46,0,0,0,0,0,0,0,0,0,0],"split_type":[0,0,0,0,0,0,0,0,0,0,0,0,0,0,0,0,0,0,0,0,0,0,0,0,0,0,0,0,0,0,0,0,0,0,0,0,0],"sum_hessian":[3.81E2,1.87E2,1.94E2,1.06E2,8.1E1,7.7E1,1.17E2,4.7E1,5.9E1,2.4E1,5.7E1,3E1,4.7E1,7.1E1,4.6E1,4.4E1,1.3E1,1.1E1,1.9E1,2.1E1,2.6E1,1.7E1,2.7E1,8E0,5E0,4E0,7E0,4E0,1.5E1,4E0,2.3E1,2E0,3E0,2E0,2E0,4E0,3E0],"tree_param":{"num_deleted":"0","num_feature":"600","num_nodes":"37","size_leaf_vector":"1"}},{"base_weights":[2.79488E-4,-9.187344E-2,9.9519566E-2,-1.3986063E-1,-3.6106814E-2,4.326033E-2,1.2966643E-1,-1.7153923E-3,-1.2010111E-3,-7.1763777E-4,-2.0191401E-2,2.952629E-2,6.0354365E-4,1.0680143E-3,1.4729E-3,-2.931268E-2,-9.8690605E-3,1.3871712E-2,3.5390313E-4,-3.3068795E-2,-1.8452732E-4,1.5518337E-3,-1.4405577E-2,5.579603E-3,1.7320315E-4,-3.3697436E-4,-9.304993E-5,-3.2197906E-5,4.0567855E-5,-6.994605E-5,-1.6609767E-4,6.1815306E-5,1.5859454E-5],"categories":[],"categories_nodes":[],"categories_segments":[],"categories_sizes":[],"default_left":[0,0,0,0,0,0,0,0,0,0,0,0,0,0,0,0,0,0,0,0,0,0,0,0,0,0,0,0,0,0,0,0,0],"id":30,"left_children":[1,3,5,7,9,11,13,-1,-1,-1,15,17,-1,-1,-1,19,21,23,-1,25,-1,27,29,31,-1,-1,-1,-1,-1,-1,-1,-1,-1],"loss_changes":[3.4569073E0,5.1946235E-1,3.0306983E-1,4.51231E-2,5.0760567E-2,1.3478018E-2,3.1818748E-2,0E0,0E0,0E0,5.830653E-3,2.9974282E-3,0E0,0E0,0E0,7.766895E-4,1.6803094E-3,2.4651387E-4,0E0,4.4981018E-5,0E0,1.325889E-4,2.5953026E-4,2.2159074E-6,0E0,0E0,0E0,0E0,0E0,0E0,0E0,0E0,0E0],"parents":[2147483647,0,0,1,1,2,2,3,3,4,4,5,5,6,6,10,10,11,11,15,15,16,16,17,17,19,19,21,21,22,22,23,23],"right_children":[2,4,6,8,10,12,14,-1,-1,-1,16,18,-1,-1,-1,20,22,24,-1,26,-1,28,30,32,-1,-1,-1,-1,-1,-1,-1,-1,-1],"split_conditions":[2.705135E-1,1.4522125E-1,3.8439038E-1,6.723989E-2,1.8965103E-1,3.2795018E-1,4.24945E-1,-1.7153923E-3,-1.2010111E-3,-7.1763777E-4,2.581468E-1,5.384039E-1,6.0354365E-4,1.0680143E-3,1.4729E-3,2.400826E-1,4.4671303E-1,3.125386E-1,3.5390313E-4,7.257282E-1,-1.8452732E-4,5.244975E-1,3.1222397E-1,5.786174E-1,1.7320315E-4,-3.3697436E-4,-9.304993E-5,-3.2197906E-5,4.0567855E-5,-6.994605E-5,-1.6609767E-4,6.1815306E-5,1.5859454E-5],"split_indices":[511,575,543,572,572,575,572,0,0,0,540,25,0,0,0,543,322,117,0,164,0,29,134,12,0,0,0,0,0,0,0,0,0],"split_type":[0,0,0,0,0,0,0,0,0,0,0,0,0,0,0,0,0,0,0,0,0,0,0,0,0,0,0,0,0,0,0,0,0],"sum_hessian":[3.76E2,1.95E2,1.81E2,1.04E2,9.1E1,6.4E1,1.17E2,3.7E1,6.7E1,2.7E1,6.4E1,3.7E1,2.7E1,5.4E1,6.3E1,3.3E1,3.1E1,1.1E1,2.6E1,2.3E1,1E1,9E0,2.2E1,4E0,7E0,2.2E1,1E0,3E0,6E0,6E0,1.6E1,3E0,1E0],"tree_param":{"num_deleted":"0","num_feature":"600","num_nodes":"33","size_leaf_vector":"1"}},{"base_weights":[4.663464E-3,-8.965703E-2,1.0195359E-1,-1.3669622E-1,-3.2096926E-2,3.6936034E-2,1.27687E-1,-1.5470856E-3,-1.0392735E-3,-6.508599E-2,-1.8915026E-2,2.2685196E-2,4.723716E-4,9.5368456E-4,1.3891576E-1,-6.621263E-4,-1.9023322E-4,-2.7067887E-2,-3.8593907E-3,1.2231697E-4,2.6884978E-4,1.2571194E-3,1.5645572E-3,-3.4415565E-4,-2.1222562E-2,-1.1863602E-2,-5.322314E-4,-5.763121E-5,-2.1610415E-4,-1.3650315E-4,-4.9312115E-5,-4.7331483E-5,3.3018172E-5],"categories":[],"categories_nodes":[],"categories_segments":[],"categories_sizes":[],"default_left":[0,0,0,0,0,0,0,0,0,0,0,0,0,0,0,0,0,0,0,0,0,0,0,0,0,0,0,0,0,0,0,0,0],"id":31,"left_children":[1,3,5,7,9,11,13,-1,-1,15,17,19,-1,-1,21,-1,-1,23,25,-1,-1,-1,-1,-1,27,29,31,-1,-1,-1,-1,-1,-1],"loss_changes":[3.5237224E0,5.2359056E-1,3.1150413E-1,4.7077656E-2,3.7471324E-2,7.0023984E-3,3.5742998E-2,0E0,0E0,3.7811697E-5,7.874057E-3,7.687118E-4,0E0,0E0,3.027916E-3,0E0,0E0,1.0734946E-3,6.328366E-4,0E0,0E0,0E0,0E0,0E0,3.1352043E-5,1.9390834E-5,3.0554534E-4,0E0,0E0,0E0,0E0,0E0,0E0],"parents":[2147483647,0,0,1,1,2,2,3,3,4,4,5,5,6,6,9,9,10,10,11,11,14,14,17,17,18,18,24,24,25,25,26,26],"right_children":[2,4,6,8,10,12,14,-1,-1,16,18,20,-1,-1,22,-1,-1,24,26,-1,-1,-1,-1,-1,28,30,32,-1,-1,-1,-1,-1,-1],"split_conditions":[2.7503946E-1,1.5286343E-1,3.6172992E-1,9.531027E-2,1.9400084E-1,3.1197992E-1,4.071243E-1,-1.5470856E-3,-1.0392735E-3,2.7115682E-1,2.4284302E-1,2.937566E-1,4.723716E-4,9.5368456E-4,4.605219E-1,-6.621263E-4,-1.9023322E-4,2.1357255E-1,2.5286338E-1,1.2231697E-4,2.6884978E-4,1.2571194E-3,1.5645572E-3,-3.4415565E-4,4.1882772E-2,4.732805E-1,3.9523137E-1,-5.763121E-5,-2.1610415E-4,-1.3650315E-4,-4.9312115E-5,-4.7331483E-5,3.3018172E-5],"split_indices":[541,573,573,541,571,573,571,0,0,10,573,573,0,0,571,0,0,571,570,0,0,0,0,0,47,59,18,0,0,0,0,0,0],"split_type":[0,0,0,0,0,0,0,0,0,0,0,0,0,0,0,0,0,0,0,0,0,0,0,0,0,0,0,0,0,0,0,0,0],"sum_hessian":[3.82E2,1.94E2,1.88E2,1.06E2,8.8E1,5.4E1,1.34E2,6.6E1,4E1,2.4E1,6.4E1,2.4E1,3E1,3.7E1,9.7E1,2.3E1,1E0,4.1E1,2.3E1,8E0,1.6E1,6E1,3.7E1,1.6E1,2.5E1,6E0,1.7E1,1E0,2.4E1,4E0,2E0,8E0,9E0],"tree_param":{"num_deleted":"0","num_feature":"600","num_nodes":"33","size_leaf_vector":"1"}},{"base_weights":[-3.170787E-3,-9.474928E-2,9.392975E-2,-1.3816416E-1,-3.862171E-2,3.3079725E-2,1.2560035E-1,-1.6630706E-3,-1.1577762E-3,-6.744337E-2,-2.115053E-2,1.4787283E-2,4.3685507E-2,9.6842623E-4,1.398437E-3,-6.933679E-4,-2.6028E-4,-2.68944E-2,-7.849552E-3,3.4536587E-3,1.9917596E-2,3.567281E-4,4.923639E-4,-3.1578645E-2,-1.8479898E-4,-3.2066405E-3,-1.1243217E-2,4.7463262E-3,-7.1378547E-4,8.8132394E-5,2.1667585E-4,-1.5519366E-4,-3.3211568E-4,2.4658291E-5,-4.2239277E-5,-3.1871794E-5,-1.17842006E-4,6.143771E-5,2.1623E-5,1.1917948E-6,-1.1898577E-5],"categories":[],"categories_nodes":[],"categories_segments":[],"categories_sizes":[],"default_left":[0,0,0,0,0,0,0,0,0,0,0,0,0,0,0,0,0,0,0,0,0,0,0,0,0,0,0,0,0,0,0,0,0,0,0,0,0,0,0,0,0],"id":32,"left_children":[1,3,5,7,9,11,13,-1,-1,15,17,19,21,-1,-1,-1,-1,23,25,27,29,-1,-1,31,-1,33,35,37,39,-1,-1,-1,-1,-1,-1,-1,-1,-1,-1,-1,-1],"loss_changes":[3.3524122E0,4.673977E-1,3.485148E-1,4.9417496E-2,4.18787E-2,1.1770375E-2,3.560996E-2,0E0,0E0,7.046461E-4,3.99084E-3,1.3848376E-3,2.2701919E-5,0E0,0E0,0E0,0E0,9.1422163E-4,2.4756382E-4,5.1871946E-5,1.3939105E-4,0E0,0E0,8.772127E-5,0E0,6.235028E-5,6.023445E-6,1.19925535E-5,1.3314612E-6,0E0,0E0,0E0,0E0,0E0,0E0,0E0,0E0,0E0,0E0,0E0,0E0],"parents":[2147483647,0,0,1,1,2,2,3,3,4,4,5,5,6,6,9,9,10,10,11,11,12,12,17,17,18,18,19,19,20,20,23,23,25,25,26,26,27,27,28,28],"right_children":[2,4,6,8,10,12,14,-1,-1,16,18,20,22,-1,-1,-1,-1,24,26,28,30,-1,-1,32,-1,34,36,38,40,-1,-1,-1,-1,-1,-1,-1,-1,-1,-1,-1,-1],"split_conditions":[2.6471835E-1,1.4522125E-1,3.6000985E-1,6.11882E-2,2.020151E-1,3.02065E-1,4.252556E-1,-1.6630706E-3,-1.1577762E-3,7.1065086E-1,2.4130584E-1,2.7900332E-1,3.2256383E-1,9.6842623E-4,1.398437E-3,-6.933679E-4,-2.6028E-4,4.565101E-1,2.4916306E-1,1.4092602E-1,4.0183592E-1,3.567281E-4,4.923639E-4,2.2111751E-1,-1.8479898E-4,1.9211368E-1,2.3268333E-1,4.7782543E-1,2.8979418E-1,8.8132394E-5,2.1667585E-4,-1.5519366E-4,-3.3211568E-4,2.4658291E-5,-4.2239277E-5,-3.1871794E-5,-1.17842006E-4,6.143771E-5,2.1623E-5,1.1917948E-6,-1.1898577E-5],"split_indices":[573,575,511,573,575,575,573,0,0,18,573,541,573,0,0,0,0,591,513,54,329,0,0,1,0,0,5,4,0,0,0,0,0,0,0,0,0,0,0,0,0],"split_type":[0,0,0,0,0,0,0,0,0,0,0,0,0,0,0,0,0,0,0,0,0,0,0,0,0,0,0,0,0,0,0,0,0,0,0,0,0,0,0,0,0],"sum_hessian":[3.75E2,1.93E2,1.82E2,1.08E2,8.5E1,6.3E1,1.19E2,4.5E1,6.3E1,3.1E1,5.4E1,2.4E1,3.9E1,4.2E1,7.7E1,2.9E1,2E0,3.7E1,1.7E1,8E0,1.6E1,1.9E1,2E1,2.2E1,1.5E1,8E0,9E0,6E0,2E0,3E0,1.3E1,3E0,1.9E1,1E0,7E0,1E0,8E0,3E0,3E0,1E0,1E0],"tree_param":{"num_deleted":"0","num_feature":"600","num_nodes":"41","size_leaf_vector":"1"}},{"base_weights":[1.6707168E-3,-9.005892E-2,9.790252E-2,-1.3559794E-1,-3.4699198E-2,3.8539566E-2,1.2654673E-1,-1.6451643E-3,-1.1601707E-3,-6.872392E-4,-2.0106468E-2,2.2995187E-2,4.671857E-2,1.0660413E-3,1.4776791E-3,-2.7866399E-2,-4.378123E-3,1.3590249E-2,2.8070484E-4,3.0591292E-4,4.9290434E-4,-3.5605213E-4,-2.173462E-2,-8.487954E-3,5.033396E-4,5.4645738E-5,1.4938596E-4,-2.2486312E-4,-8.4762025E-5,-1.1950117E-4,-5.263107E-5,1.6984774E-5,-3.2498538E-5],"categories":[],"categories_nodes":[],"categories_segments":[],"categories_sizes":[],"default_left":[0,0,0,0,0,0,0,0,0,0,0,0,0,0,0,0,0,0,0,0,0,0,0,0,0,0,0,0,0,0,0,0,0],"id":33,"left_children":[1,3,5,7,9,11,13,-1,-1,-1,15,17,19,-1,-1,21,23,25,-1,-1,-1,-1,27,29,31,-1,-1,-1,-1,-1,-1,-1,-1],"loss_changes":[3.3102305E0,4.793321E-1,3.0629706E-1,4.036939E-2,4.2311408E-2,6.6810846E-3,3.6301732E-2,0E0,0E0,0E0,7.5672027E-3,7.1637146E-4,1.097545E-4,0E0,0E0,1.219146E-3,4.4563596E-4,2.79292E-5,0E0,0E0,0E0,0E0,6.852392E-5,7.108465E-5,5.486122E-5,0E0,0E0,0E0,0E0,0E0,0E0,0E0,0E0],"parents":[2147483647,0,0,1,1,2,2,3,3,4,4,5,5,6,6,10,10,11,11,12,12,15,15,16,16,17,17,22,22,23,23,24,24],"right_children":[2,4,6,8,10,12,14,-1,-1,-1,16,18,20,-1,-1,22,24,26,-1,-1,-1,-1,28,30,32,-1,-1,-1,-1,-1,-1,-1,-1],"split_conditions":[2.7503946E-1,1.4820589E-1,3.5098034E-1,6.367696E-2,1.9222316E-1,3.0993775E-1,4.3552324E-1,-1.6451643E-3,-1.1601707E-3,-6.872392E-4,2.426106E-1,4.351419E-1,3.0796787E-1,1.0660413E-3,1.4776791E-3,2.1078545E-1,2.4960564E-1,3.685848E-1,2.8070484E-4,3.0591292E-4,4.9290434E-4,-3.5605213E-4,3.8508496E-1,3.252319E-1,8.552015E-1,5.4645738E-5,1.4938596E-4,-2.2486312E-4,-8.4762025E-5,-1.1950117E-4,-5.263107E-5,1.6984774E-5,-3.2498538E-5],"split_indices":[511,575,571,571,571,575,571,0,0,0,571,15,541,0,0,571,547,299,0,0,0,0,560,298,42,0,0,0,0,0,0,0,0],"split_type":[0,0,0,0,0,0,0,0,0,0,0,0,0,0,0,0,0,0,0,0,0,0,0,0,0,0,0,0,0,0,0,0,0],"sum_hessian":[3.73E2,1.91E2,1.82E2,1.04E2,8.7E1,6E1,1.22E2,3.9E1,6.5E1,2.5E1,6.2E1,2.2E1,3.8E1,6.6E1,5.6E1,4.1E1,2.1E1,9E0,1.3E1,7E0,3.1E1,1.6E1,2.5E1,1.1E1,1E1,2E0,7E0,2.3E1,2E0,4E0,7E0,8E0,2E0],"tree_param":{"num_deleted":"0","num_feature":"600","num_nodes":"33","size_leaf_vector":"1"}},{"base_weights":[-2.1521265E-3,-8.465383E-2,9.4603755E-2,-1.3062741E-1,-3.076412E-2,3.7261162E-2,1.2371427E-1,-1.5262042E-3,-1.0575477E-3,-6.327336E-2,-1.835978E-2,2.5218494E-2,5.0153903E-4,9.700271E-4,1.3856763E-3,-6.436107E-4,-1.8584124E-4,-2.5840363E-2,-6.043326E-3,1.1928951E-2,2.9900098E-2,-2.9852844E-4,-1.7454277E-4,-1.260955E-2,-2.6149396E-3,1.4187569E-4,4.9941315E-5,3.0537602E-4,7.9374906E-5,-1.4136592E-4,-4.843265E-5,-5.8673457E-5,8.989602E-6],"categories":[],"categories_nodes":[],"categories_segments":[],"categories_sizes":[],"default_left":[0,0,0,0,0,0,0,0,0,0,0,0,0,0,0,0,0,0,0,0,0,0,0,0,0,0,0,0,0,0,0,0,0],"id":34,"left_children":[1,3,5,7,9,11,13,-1,-1,15,17,19,-1,-1,-1,-1,-1,21,23,25,27,-1,-1,29,31,-1,-1,-1,-1,-1,-1,-1,-1],"loss_changes":[2.913648E0,4.8404944E-1,2.75828E-1,4.184413E-2,3.593783E-2,7.7404603E-3,3.0598521E-2,0E0,0E0,1.9133091E-5,6.1089676E-3,1.6342476E-3,0E0,0E0,0E0,0E0,0E0,8.921977E-4,5.748387E-4,8.5776555E-5,7.963739E-5,0E0,0E0,3.8267928E-5,2.2241846E-4,0E0,0E0,0E0,0E0,0E0,0E0,0E0,0E0],"parents":[2147483647,0,0,1,1,2,2,3,3,4,4,5,5,6,6,9,9,10,10,11,11,17,17,18,18,19,19,20,20,23,23,24,24],"right_children":[2,4,6,8,10,12,14,-1,-1,16,18,20,-1,-1,-1,-1,-1,22,24,26,28,-1,-1,30,32,-1,-1,-1,-1,-1,-1,-1,-1],"split_conditions":[2.705135E-1,1.6116543E-1,3.5098034E-1,8.353971E-2,1.9400084E-1,3.1981787E-1,4.1273028E-1,-1.5262042E-3,-1.0575477E-3,2.7115682E-1,2.400826E-1,2.937566E-1,5.0153903E-4,9.700271E-4,1.3856763E-3,-6.436107E-4,-1.8584124E-4,2.2609687E-1,2.5286338E-1,4.1233316E-1,5.015081E-1,-2.9852844E-4,-1.7454277E-4,7.92717E-1,2.4921496E-1,1.4187569E-4,4.9941315E-5,3.0537602E-4,7.9374906E-5,-1.4136592E-4,-4.843265E-5,-5.8673457E-5,8.989602E-6],"split_indices":[541,541,541,573,571,573,571,0,0,10,573,573,0,0,0,0,0,571,570,14,7,0,0,88,574,0,0,0,0,0,0,0,0],"split_type":[0,0,0,0,0,0,0,0,0,0,0,0,0,0,0,0,0,0,0,0,0,0,0,0,0,0,0,0,0,0,0,0,0],"sum_hessian":[3.63E2,1.96E2,1.67E2,1.05E2,9.1E1,5.7E1,1.1E2,5.3E1,5.2E1,2.4E1,6.7E1,3.1E1,2.6E1,4.2E1,6.8E1,2.3E1,1E0,4.1E1,2.6E1,9E0,2.2E1,2.6E1,1.5E1,8E0,1.8E1,6E0,3E0,2.1E1,1E0,6E0,2E0,9E0,9E0],"tree_param":{"num_deleted":"0","num_feature":"600","num_nodes":"33","size_leaf_vector":"1"}},{"base_weights":[-2.937268E-4,-9.0032116E-2,9.3742214E-2,-1.346236E-1,-3.6611002E-2,3.4346867E-2,1.226959E-1,-1.6395255E-3,-1.160953E-3,-6.8061304E-4,-2.1552753E-2,1.1669119E-2,4.3874323E-2,9.336082E-4,1.34773E-1,-3.0448614E-2,-1.3069558E-2,5.105382E-3,1.7722318E-4,3.0168224E-4,4.92649E-4,1.2134991E-3,1.5124873E-3,-3.534405E-4,-2.319691E-4,-1.6715756E-2,-3.9260765E-3,1.9396542E-5,7.420212E-5,-1.757151E-4,-4.868304E-5,1.5892387E-5,-5.3282845E-5],"categories":[],"categories_nodes":[],"categories_segments":[],"categories_sizes":[],"default_left":[0,0,0,0,0,0,0,0,0,0,0,0,0,0,0,0,0,0,0,0,0,0,0,0,0,0,0,0,0,0,0,0,0],"id":35,"left_children":[1,3,5,7,9,11,13,-1,-1,-1,15,17,19,-1,21,23,25,27,-1,-1,-1,-1,-1,-1,-1,29,31,-1,-1,-1,-1,-1,-1],"loss_changes":[3.2488754E0,4.6435034E-1,3.1909192E-1,3.9111257E-2,4.162947E-2,1.3099879E-2,3.2057047E-2,0E0,0E0,0E0,4.3563657E-3,7.04153E-4,1.7646477E-3,0E0,8.865595E-4,2.4513341E-4,1.0678964E-3,6.621666E-5,0E0,0E0,0E0,0E0,0E0,0E0,0E0,1.5778095E-4,9.353772E-5,0E0,0E0,0E0,0E0,0E0,0E0],"parents":[2147483647,0,0,1,1,2,2,3,3,4,4,5,5,6,6,10,10,11,11,12,12,14,14,15,15,16,16,17,17,25,25,26,26],"right_children":[2,4,6,8,10,12,14,-1,-1,-1,16,18,20,-1,22,24,26,28,-1,-1,-1,-1,-1,-1,-1,30,32,-1,-1,-1,-1,-1,-1],"split_conditions":[2.5954026E-1,1.4321564E-1,3.560161E-1,5.8688454E-2,1.9222316E-1,2.9921636E-1,4.0898547E-1,-1.6395255E-3,-1.160953E-3,-6.8061304E-4,2.254025E-1,2.7900332E-1,3.0955514E-1,9.336082E-4,4.605219E-1,2.1078545E-1,2.5459757E-1,4.8876363E-1,1.7722318E-4,3.0168224E-4,4.92649E-4,1.2134991E-3,1.5124873E-3,-3.534405E-4,-2.319691E-4,5.3450054E-1,3.6992528E-2,1.9396542E-5,7.420212E-5,-1.757151E-4,-4.868304E-5,1.5892387E-5,-5.3282845E-5],"split_indices":[573,575,541,571,571,573,571,0,0,0,571,571,571,0,571,571,571,46,0,0,0,0,0,0,0,21,113,0,0,0,0,0,0],"split_type":[0,0,0,0,0,0,0,0,0,0,0,0,0,0,0,0,0,0,0,0,0,0,0,0,0,0,0,0,0,0,0,0,0],"sum_hessian":[3.83E2,1.96E2,1.87E2,1.06E2,9E1,6.2E1,1.25E2,3.8E1,6.8E1,2.8E1,6.2E1,1.9E1,4.3E1,3.9E1,8.6E1,2.9E1,3.3E1,1E1,9E0,1.4E1,2.9E1,5.2E1,3.4E1,1.5E1,1.4E1,2.3E1,1E1,5E0,5E0,2.1E1,2E0,2E0,8E0],"tree_param":{"num_deleted":"0","num_feature":"600","num_nodes":"33","size_leaf_vector":"1"}},{"base_weights":[-4.4663395E-3,-9.2035584E-2,8.8901244E-2,-1.3203166E-1,-3.6956113E-2,3.0469716E-2,1.2110277E-1,-1.5984904E-3,-1.13057666E-1,-6.661541E-4,-2.1466533E-2,1.4307257E-2,4.4376258E-2,1.0251042E-1,1.4237186E-3,-1.1871661E-3,-8.653892E-4,-2.9144691E-2,-1.2140188E-2,4.056622E-3,2.1107342E-2,3.4083147E-4,5.125029E-4,8.4711675E-4,1.1066418E-3,-3.3741177E-4,-2.1481483E-4,-1.5682736E-2,-3.312568E-3,1.4047192E-3,7.3583724E-5,1.003214E-4,2.2556934E-4,-5.5956294E-5,-1.6540299E-4,1.5786489E-5,-4.9355796E-5,2.1312448E-5,-7.5874727E-6],"categories":[],"categories_nodes":[],"categories_segments":[],"categories_sizes":[],"default_left":[0,0,0,0,0,0,0,0,0,0,0,0,0,0,0,0,0,0,0,0,0,0,0,0,0,0,0,0,0,0,0,0,0,0,0,0,0,0,0],"id":36,"left_children":[1,3,5,7,9,11,13,-1,15,-1,17,19,21,23,-1,-1,-1,25,27,29,31,-1,-1,-1,-1,-1,-1,33,35,37,-1,-1,-1,-1,-1,-1,-1,-1,-1],"loss_changes":[3.0742302E0,4.2249537E-1,3.3875835E-1,4.104221E-2,3.6701024E-2,1.4199521E-2,3.167212E-2,0E0,2.3114681E-4,0E0,3.6562905E-3,2.144942E-3,7.2966516E-4,2.0378828E-4,0E0,0E0,0E0,3.3190474E-4,7.924009E-4,1.1224646E-4,7.874146E-5,0E0,0E0,0E0,0E0,0E0,0E0,7.180311E-5,7.923807E-5,1.5763402E-5,0E0,0E0,0E0,0E0,0E0,0E0,0E0,0E0,0E0],"parents":[2147483647,0,0,1,1,2,2,3,3,4,4,5,5,6,6,8,8,10,10,11,11,12,12,13,13,17,17,18,18,19,19,20,20,27,27,28,28,29,29],"right_children":[2,4,6,8,10,12,14,-1,16,-1,18,20,22,24,-1,-1,-1,26,28,30,32,-1,-1,-1,-1,-1,-1,34,36,38,-1,-1,-1,-1,-1,-1,-1,-1,-1],"split_conditions":[2.618947E-1,1.4522125E-1,3.5098034E-1,6.1196685E-2,1.9222316E-1,3.0285633E-1,4.3495408E-1,-1.5984904E-3,1.15885474E-1,-6.661541E-4,2.3114593E-1,2.7900332E-1,3.2753313E-1,4.0349078E-1,1.4237186E-3,-1.1871661E-3,-8.653892E-4,2.2371744E-1,2.5459757E-1,2.797553E-1,2.8725964E-1,3.4083147E-4,5.125029E-4,8.4711675E-4,1.1066418E-3,-3.3741177E-4,-2.1481483E-4,1.2427199E-1,2.2940792E-1,1.8411016E-1,7.3583724E-5,1.003214E-4,2.2556934E-4,-5.5956294E-5,-1.6540299E-4,1.5786489E-5,-4.9355796E-5,2.1312448E-5,-7.5874727E-6],"split_indices":[573,575,541,573,571,575,571,0,573,0,571,571,571,573,0,0,0,573,571,542,571,0,0,0,0,0,0,27,9,117,0,0,0,0,0,0,0,0,0],"split_type":[0,0,0,0,0,0,0,0,0,0,0,0,0,0,0,0,0,0,0,0,0,0,0,0,0,0,0,0,0,0,0,0,0,0,0,0,0,0,0],"sum_hessian":[3.74E2,1.93E2,1.81E2,1.11E2,8.2E1,6.5E1,1.16E2,4.2E1,6.9E1,2.7E1,5.5E1,3.1E1,3.4E1,6.5E1,5.1E1,5.4E1,1.5E1,2.9E1,2.6E1,1.3E1,1.8E1,1.6E1,1.8E1,2.4E1,4.1E1,1.6E1,1.3E1,1.8E1,8E0,8E0,5E0,3E0,1.5E1,2E0,1.6E1,2E0,6E0,6E0,2E0],"tree_param":{"num_deleted":"0","num_feature":"600","num_nodes":"39","size_leaf_vector":"1"}},{"base_weights":[2.326341E-3,-8.535939E-2,9.788086E-2,-1.3245608E-1,-3.27871E-2,3.9888404E-2,1.2281396E-1,-1.6155548E-3,-1.12654E-3,-6.4308845E-2,-1.6755968E-2,2.7990257E-2,5.2082865E-4,1.0690656E-1,1.4577345E-3,-6.524275E-4,-1.8145777E-4,-2.7031435E-2,-5.277053E-3,1.19653596E-4,3.0716622E-2,8.531429E-4,1.1348019E-3,-3.1410865E-4,-1.674986E-4,-1.3114413E-2,-1.4747503E-3,8.692905E-5,3.1272072E-4,-1.4585145E-4,-4.8209928E-5,-6.160045E-5,2.2427646E-5],"categories":[],"categories_nodes":[],"categories_segments":[],"categories_sizes":[],"default_left":[0,0,0,0,0,0,0,0,0,0,0,0,0,0,0,0,0,0,0,0,0,0,0,0,0,0,0,0,0,0,0,0,0],"id":37,"left_children":[1,3,5,7,9,11,13,-1,-1,15,17,19,-1,21,-1,-1,-1,23,25,-1,27,-1,-1,-1,-1,29,31,-1,-1,-1,-1,-1,-1],"loss_changes":[3.116878E0,4.7599745E-1,2.5247693E-1,4.0575385E-2,4.5918077E-2,6.522216E-3,2.9703736E-2,0E0,0E0,1.5258789E-4,7.288279E-3,9.4315596E-4,0E0,1.2478828E-3,0E0,0E0,0E0,9.5977634E-4,9.0446E-4,0E0,3.3982098E-5,0E0,0E0,0E0,0E0,5.1659066E-5,3.9700387E-4,0E0,0E0,0E0,0E0,0E0,0E0],"parents":[2147483647,0,0,1,1,2,2,3,3,4,4,5,5,6,6,9,9,10,10,11,11,13,13,17,17,18,18,20,20,25,25,26,26],"right_children":[2,4,6,8,10,12,14,-1,-1,16,18,20,-1,22,-1,-1,-1,24,26,-1,28,-1,-1,-1,-1,30,32,-1,-1,-1,-1,-1,-1],"split_conditions":[2.7503946E-1,1.4522125E-1,3.8439038E-1,5.8688454E-2,1.9400084E-1,3.2178032E-1,4.457535E-1,-1.6155548E-3,-1.12654E-3,2.7115682E-1,2.3901515E-1,2.8937262E-1,5.2082865E-4,4.0349078E-1,1.4577345E-3,-6.524275E-4,-1.8145777E-4,2.3114593E-1,2.5286338E-1,1.19653596E-4,9.255393E-2,8.531429E-4,1.1348019E-3,-3.1410865E-4,-1.674986E-4,7.92717E-1,3.9523137E-1,8.692905E-5,3.1272072E-4,-1.4585145E-4,-4.8209928E-5,-6.160045E-5,2.2427646E-5],"split_indices":[541,575,573,571,571,573,571,0,0,10,573,573,0,573,0,0,0,571,570,0,12,0,0,0,0,88,18,0,0,0,0,0,0],"split_type":[0,0,0,0,0,0,0,0,0,0,0,0,0,0,0,0,0,0,0,0,0,0,0,0,0,0,0,0,0,0,0,0,0],"sum_hessian":[3.7E2,1.93E2,1.77E2,1.01E2,9.2E1,5.4E1,1.23E2,3.8E1,6.3E1,3E1,6.2E1,2.9E1,2.5E1,7.6E1,4.7E1,2.9E1,1E0,3.2E1,3E1,5E0,2.4E1,2.1E1,5.5E1,2.1E1,1.1E1,9E0,2.1E1,1E0,2.3E1,7E0,2E0,9E0,1.2E1],"tree_param":{"num_deleted":"0","num_feature":"600","num_nodes":"33","size_leaf_vector":"1"}},{"base_weights":[1.5223633E-4,-8.2459226E-2,9.510707E-2,-1.2622756E-1,-2.864632E-2,3.7459426E-2,1.1937115E-1,-1.4679829E-3,-9.860669E-4,-5.8674894E-2,-1.6382847E-2,1.8883878E-2,4.4981718E-2,1.0029328E-3,1.3741337E-3,-6.071267E-4,-2.2814378E-4,-2.435075E-2,-4.699594E-3,8.198713E-5,2.2652805E-4,3.6156896E-4,5.323699E-4,-2.8201077E-2,-1.5460802E-2,-8.281753E-3,3.782938E-3,-1.594374E-4,-2.9704967E-4,-3.2180844E-5,-1.6155004E-4,-1.10562156E-4,-1.5497208E-5,7.159362E-5,1.7954791E-5],"categories":[],"categories_nodes":[],"categories_segments":[],"categories_sizes":[],"default_left":[0,0,0,0,0,0,0,0,0,0,0,0,0,0,0,0,0,0,0,0,0,0,0,0,0,0,0,0,0,0,0,0,0,0,0],"id":38,"left_children":[1,3,5,7,9,11,13,-1,-1,15,17,19,21,-1,-1,-1,-1,23,25,-1,-1,-1,-1,27,29,31,33,-1,-1,-1,-1,-1,-1,-1,-1],"loss_changes":[2.9337878E0,4.674443E-1,2.3891401E-1,4.8024535E-2,3.254991E-2,6.5563023E-3,2.8211474E-2,0E0,0E0,5.1484257E-4,6.0295686E-3,4.9889367E-4,7.7061355E-4,0E0,0E0,0E0,0E0,8.9892745E-4,8.821313E-4,0E0,0E0,0E0,0E0,5.669892E-6,6.699655E-5,3.5642134E-4,4.754006E-5,0E0,0E0,0E0,0E0,0E0,0E0,0E0,0E0],"parents":[2147483647,0,0,1,1,2,2,3,3,4,4,5,5,6,6,9,9,10,10,11,11,12,12,17,17,18,18,23,23,24,24,25,25,26,26],"right_children":[2,4,6,8,10,12,14,-1,-1,16,18,20,22,-1,-1,-1,-1,24,26,-1,-1,-1,-1,28,30,32,34,-1,-1,-1,-1,-1,-1,-1,-1],"split_conditions":[2.7503946E-1,1.6116543E-1,3.6000985E-1,8.353971E-2,2.0996991E-1,3.0428138E-1,4.3904433E-1,-1.4679829E-3,-9.860669E-4,2.8011554E-1,2.4130584E-1,2.7219763E-1,3.2762516E-1,1.0029328E-3,1.3741337E-3,-6.071267E-4,-2.2814378E-4,2.6662472E-1,2.6471835E-1,8.198713E-5,2.2652805E-4,3.6156896E-4,5.323699E-4,2.084903E-1,1.8333738E-1,6.2108314E-1,2.4624166E-1,-1.594374E-4,-2.9704967E-4,-3.2180844E-5,-1.6155004E-4,-1.10562156E-4,-1.5497208E-5,7.159362E-5,1.7954791E-5],"split_indices":[511,511,511,573,573,573,573,0,0,414,573,570,573,0,0,0,0,570,573,0,0,0,0,2,0,561,0,0,0,0,0,0,0,0,0],"split_type":[0,0,0,0,0,0,0,0,0,0,0,0,0,0,0,0,0,0,0,0,0,0,0,0,0,0,0,0,0,0,0,0,0,0,0],"sum_hessian":[3.72E2,1.99E2,1.73E2,1.09E2,9E1,5.2E1,1.21E2,6E1,4.9E1,2.5E1,6.5E1,1.6E1,3.6E1,6.2E1,5.9E1,2.3E1,2E0,3.8E1,2.7E1,5E0,1.1E1,2E1,1.6E1,2.5E1,1.3E1,1.9E1,8E0,4E0,2.1E1,1E0,1.2E1,1.3E1,6E0,2E0,6E0],"tree_param":{"num_deleted":"0","num_feature":"600","num_nodes":"35","size_leaf_vector":"1"}},{"base_weights":[4.832502E-3,-8.4330596E-2,9.200942E-2,-1.2909502E-1,-3.3834286E-2,3.5808776E-2,1.17350444E-1,-1.5536087E-3,-1.1088034E-3,-6.1776154E-2,-1.8261245E-2,2.0499758E-2,4.678531E-4,1.0081681E-3,1.393636E-3,-6.355796E-4,-2.455393E-4,-2.7038444E-2,-8.5183885E-3,8.306205E-3,2.3742514E-2,-2.8006098E-4,-9.3167466E-5,-1.3791975E-2,-3.7011998E-3,9.3196584E-5,1.1127442E-5,1.14558876E-4,2.6098176E-4,-4.6472698E-5,-1.5032169E-4,-6.647112E-5,7.560104E-7],"categories":[],"categories_nodes":[],"categories_segments":[],"categories_sizes":[],"default_left":[0,0,0,0,0,0,0,0,0,0,0,0,0,0,0,0,0,0,0,0,0,0,0,0,0,0,0,0,0,0,0,0,0],"id":39,"left_children":[1,3,5,7,9,11,13,-1,-1,15,17,19,-1,-1,-1,-1,-1,21,23,25,27,-1,-1,29,31,-1,-1,-1,-1,-1,-1,-1,-1],"loss_changes":[2.798253E0,3.979901E-1,2.5499892E-1,2.7745366E-2,3.5858788E-2,8.78723E-3,3.144455E-2,0E0,0E0,4.2907894E-4,4.558515E-3,8.3084777E-4,0E0,0E0,0E0,0E0,0E0,2.3637898E-4,6.6026114E-4,4.0661223E-5,2.7988572E-4,0E0,0E0,7.757731E-5,1.7852048E-4,0E0,0E0,0E0,0E0,0E0,0E0,0E0,0E0],"parents":[2147483647,0,0,1,1,2,2,3,3,4,4,5,5,6,6,9,9,10,10,11,11,17,17,18,18,19,19,20,20,23,23,24,24],"right_children":[2,4,6,8,10,12,14,-1,-1,16,18,20,-1,-1,-1,-1,-1,22,24,26,28,-1,-1,30,32,-1,-1,-1,-1,-1,-1,-1,-1],"split_conditions":[2.705135E-1,1.3765506E-1,3.6000985E-1,5.8688454E-2,2.020151E-1,3.0993775E-1,4.5309538E-1,-1.5536087E-3,-1.1088034E-3,7.083533E-1,2.5286338E-1,2.7455553E-1,4.678531E-4,1.0081681E-3,1.393636E-3,-6.355796E-4,-2.455393E-4,4.265589E-1,2.4918331E-1,2.703985E-1,9.255393E-2,-2.8006098E-4,-9.3167466E-5,3.5866627E-1,2.7127615E-1,9.3196584E-5,1.1127442E-5,1.14558876E-4,2.6098176E-4,-4.6472698E-5,-1.5032169E-4,-6.647112E-5,7.560104E-7],"split_indices":[541,515,541,541,575,575,540,0,0,18,540,574,0,0,0,0,0,259,541,0,12,0,0,225,120,0,0,0,0,0,0,0,0],"split_type":[0,0,0,0,0,0,0,0,0,0,0,0,0,0,0,0,0,0,0,0,0,0,0,0,0,0,0,0,0,0,0,0,0],"sum_hessian":[3.58E2,1.77E2,1.81E2,9.3E1,8.4E1,5.7E1,1.24E2,3.5E1,5.8E1,2.9E1,5.5E1,2.5E1,3.2E1,7.4E1,5E1,2.7E1,2E0,2.8E1,2.7E1,6E0,1.9E1,2.6E1,2E0,1.2E1,1.5E1,5E0,1E0,4E0,1.5E1,2E0,1E1,8E0,7E0],"tree_param":{"num_deleted":"0","num_feature":"600","num_nodes":"33","size_leaf_vector":"1"}},{"base_weights":[1.639199E-3,-7.9857185E-2,9.244009E-2,-1.2435563E-1,-2.8686583E-2,3.9222665E-2,1.17814414E-1,-1.4300575E-3,-9.5673517E-4,-5.1290426E-2,-1.4551737E-2,2.8836206E-2,5.751512E-4,9.196647E-4,1.2718184E-3,-6.089304E-4,-3.44274E-4,-2.1052413E-2,-3.7440825E-3,1.5623052E-2,3.4130085E-4,-1.2618446E-4,-2.3011459E-2,-8.419628E-3,1.2434697E-3,1.7732936E-4,6.442577E-5,-2.381875E-4,-8.344446E-5,-3.7227273E-5,-1.12427384E-4,3.385736E-5,-3.887497E-5],"categories":[],"categories_nodes":[],"categories_segments":[],"categories_sizes":[],"default_left":[0,0,0,0,0,0,0,0,0,0,0,0,0,0,0,0,0,0,0,0,0,0,0,0,0,0,0,0,0,0,0,0,0],"id":40,"left_children":[1,3,5,7,9,11,13,-1,-1,15,17,19,-1,-1,-1,-1,-1,21,23,25,-1,-1,27,29,31,-1,-1,-1,-1,-1,-1,-1,-1],"loss_changes":[2.7379613E0,4.4045007E-1,2.3169136E-1,4.1950226E-2,2.864781E-2,9.3611255E-3,1.687479E-2,0E0,0E0,3.571123E-3,3.9960872E-3,2.194792E-3,0E0,0E0,0E0,0E0,0E0,3.044419E-4,5.468187E-4,1.3756054E-4,0E0,0E0,1.3278145E-4,1.17264804E-4,1.450648E-4,0E0,0E0,0E0,0E0,0E0,0E0,0E0,0E0],"parents":[2147483647,0,0,1,1,2,2,3,3,4,4,5,5,6,6,9,9,10,10,11,11,17,17,18,18,19,19,22,22,23,23,24,24],"right_children":[2,4,6,8,10,12,14,-1,-1,16,18,20,-1,-1,-1,-1,-1,22,24,26,-1,-1,28,30,32,-1,-1,-1,-1,-1,-1,-1,-1],"split_conditions":[2.7503946E-1,1.6622522E-1,3.7844592E-1,9.531027E-2,2.0755027E-1,3.3777863E-1,4.0868104E-1,-1.4300575E-3,-9.5673517E-4,1.8965103E-1,2.4918331E-1,2.9929185E-1,5.751512E-4,9.196647E-4,1.2718184E-3,-6.089304E-4,-3.44274E-4,1.3092507E-1,3.3778086E-1,2.1956985E-1,3.4130085E-4,-1.2618446E-4,4.6599004E-1,1.3513622E-1,5.2701145E-1,1.7732936E-4,6.442577E-5,-2.381875E-4,-8.344446E-5,-3.7227273E-5,-1.12427384E-4,3.385736E-5,-3.887497E-5],"split_indices":[541,572,572,541,572,575,541,0,0,572,541,575,0,0,0,0,0,148,18,293,0,0,323,324,45,0,0,0,0,0,0,0,0],"split_type":[0,0,0,0,0,0,0,0,0,0,0,0,0,0,0,0,0,0,0,0,0,0,0,0,0,0,0,0,0,0,0,0,0],"sum_hessian":[3.68E2,1.94E2,1.74E2,1.03E2,9.1E1,5.7E1,1.17E2,6E1,4.3E1,3.4E1,5.7E1,3.8E1,1.9E1,3.4E1,8.3E1,2E1,1.4E1,3.5E1,2.2E1,1.2E1,2.6E1,8E0,2.7E1,1.1E1,1.1E1,9E0,3E0,2.5E1,2E0,5E0,6E0,8E0,3E0],"tree_param":{"num_deleted":"0","num_feature":"600","num_nodes":"33","size_leaf_vector":"1"}},{"base_weights":[-9.519104E-4,-8.212609E-2,9.059981E-2,-1.2583125E-1,-2.9078783E-2,3.9197434E-2,1.1727566E-1,-1.514318E-3,-1.02364704E-1,-5.79566E-4,-1.7609637E-2,2.2843374E-2,5.0072085E-2,1.0271295E-1,1.394331E-3,-1.0957406E-3,-8.0661173E-4,-2.3531817E-2,-3.234671E-3,1.142321E-2,2.7918833E-4,3.8750647E-4,5.6852674E-4,8.2253304E-4,1.0914627E-3,-3.0720176E-4,-1.8598838E-2,-6.19283E-3,1.3976329E-3,5.865149E-5,1.2967356E-4,-1.9084284E-4,-7.706587E-5,-7.5945274E-5,-2.4312078E-5,-7.721409E-6,2.6112099E-5],"categories":[],"categories_nodes":[],"categories_segments":[],"categories_sizes":[],"default_left":[0,0,0,0,0,0,0,0,0,0,0,0,0,0,0,0,0,0,0,0,0,0,0,0,0,0,0,0,0,0,0,0,0,0,0,0,0],"id":41,"left_children":[1,3,5,7,9,11,13,-1,15,-1,17,19,21,23,-1,-1,-1,25,27,29,-1,-1,-1,-1,-1,-1,31,33,35,-1,-1,-1,-1,-1,-1,-1,-1],"loss_changes":[2.8463254E0,4.6698463E-1,2.4221933E-1,5.1182628E-2,2.9781371E-2,1.00604E-2,2.3753881E-2,0E0,7.0619583E-4,0E0,5.7127997E-3,1.2460668E-3,6.3726306E-4,8.941293E-4,0E0,0E0,0E0,1.1307187E-3,2.9642018E-4,9.769108E-6,0E0,0E0,0E0,0E0,0E0,0E0,1.6840175E-5,5.008065E-5,2.571491E-5,0E0,0E0,0E0,0E0,0E0,0E0,0E0,0E0],"parents":[2147483647,0,0,1,1,2,2,3,3,4,4,5,5,6,6,8,8,10,10,11,11,12,12,13,13,17,17,18,18,19,19,26,26,27,27,28,28],"right_children":[2,4,6,8,10,12,14,-1,16,-1,18,20,22,24,-1,-1,-1,26,28,30,-1,-1,-1,-1,-1,-1,32,34,36,-1,-1,-1,-1,-1,-1,-1,-1],"split_conditions":[2.7503946E-1,1.5374637E-1,3.8439038E-1,7.742049E-2,1.9586612E-1,3.1164473E-1,4.520502E-1,-1.514318E-3,1.15885474E-1,-5.79566E-4,2.4918331E-1,4.351419E-1,3.3777863E-1,4.0349078E-1,1.394331E-3,-1.0957406E-3,-8.0661173E-4,2.1357255E-1,2.7562487E-1,3.9765975E-1,2.7918833E-4,3.8750647E-4,5.6852674E-4,8.2253304E-4,1.0914627E-3,-3.0720176E-4,6.205601E-1,8.0591524E-1,4.2304027E-1,5.865149E-5,1.2967356E-4,-1.9084284E-4,-7.706587E-5,-7.5945274E-5,-2.4312078E-5,-7.721409E-6,2.6112099E-5],"split_indices":[511,571,543,571,571,541,571,0,573,0,571,15,575,573,0,0,0,571,450,299,0,0,0,0,0,0,376,328,18,0,0,0,0,0,0,0,0],"split_type":[0,0,0,0,0,0,0,0,0,0,0,0,0,0,0,0,0,0,0,0,0,0,0,0,0,0,0,0,0,0,0,0,0,0,0,0,0],"sum_hessian":[3.81E2,2.02E2,1.79E2,1.1E2,9.2E1,6.2E1,1.17E2,5E1,6E1,2.5E1,6.7E1,2.6E1,3.6E1,7.4E1,4.3E1,4.2E1,1.8E1,4.7E1,2E1,9E0,1.7E1,1.6E1,2E1,2.1E1,5.3E1,1.7E1,3E1,1.2E1,8E0,3E0,6E0,2.8E1,2E0,8E0,4E0,3E0,5E0],"tree_param":{"num_deleted":"0","num_feature":"600","num_nodes":"37","size_leaf_vector":"1"}},{"base_weights":[-2.7266114E-3,-8.577019E-2,8.751386E-2,-1.2584832E-1,-3.2876126E-2,3.4831244E-2,1.15760006E-1,-1.5409004E-3,-1.0723385E-3,-6.314791E-4,-1.7696828E-2,1.8690279E-2,4.4217438E-2,1.0090024E-1,1.4002282E-3,-2.5096694E-2,-5.5513326E-3,2.2520743E-2,8.952651E-3,3.6220433E-4,5.2423583E-4,8.48437E-4,1.1022558E-3,-3.2336905E-4,-1.8690327E-2,1.4662668E-3,-8.527183E-3,9.8541976E-5,2.4397107E-4,9.8024306E-5,1.0772049E-5,-1.0241431E-4,-1.999889E-4,-8.492072E-6,2.379626E-5,-2.4964987E-5,-1.019074E-4],"categories":[],"categories_nodes":[],"categories_segments":[],"categories_sizes":[],"default_left":[0,0,0,0,0,0,0,0,0,0,0,0,0,0,0,0,0,0,0,0,0,0,0,0,0,0,0,0,0,0,0,0,0,0,0,0,0],"id":42,"left_children":[1,3,5,7,9,11,13,-1,-1,-1,15,17,19,21,-1,23,25,27,29,-1,-1,-1,-1,-1,31,33,35,-1,-1,-1,-1,-1,-1,-1,-1,-1,-1],"loss_changes":[2.8926542E0,4.2196155E-1,2.71263E-1,4.3406725E-2,3.9318882E-2,9.172708E-3,2.913642E-2,0E0,0E0,0E0,5.2531827E-3,7.681707E-4,7.9179555E-4,2.3272038E-3,0E0,1.1118017E-3,5.1370315E-4,1.8739235E-4,4.9672322E-5,0E0,0E0,0E0,0E0,0E0,3.8413797E-5,1.8939672E-5,1.4510937E-4,0E0,0E0,0E0,0E0,0E0,0E0,0E0,0E0,0E0,0E0],"parents":[2147483647,0,0,1,1,2,2,3,3,4,4,5,5,6,6,10,10,11,11,12,12,13,13,15,15,16,16,17,17,18,18,24,24,25,25,26,26],"right_children":[2,4,6,8,10,12,14,-1,-1,-1,16,18,20,22,-1,24,26,28,30,-1,-1,-1,-1,-1,32,34,36,-1,-1,-1,-1,-1,-1,-1,-1,-1,-1],"split_conditions":[2.705135E-1,1.4522125E-1,3.6000985E-1,5.8688454E-2,1.9222316E-1,3.0993775E-1,4.520502E-1,-1.5409004E-3,-1.0723385E-3,-6.314791E-4,2.4697258E-1,4.6530655E-1,3.3777863E-1,4.071243E-1,1.4002282E-3,2.1357255E-1,4.3683544E-1,2.1066548E-1,2.703985E-1,3.6220433E-4,5.2423583E-4,8.48437E-4,1.1022558E-3,-3.2336905E-4,2.3775466E-1,1.3060996E-1,4.057233E-2,9.8541976E-5,2.4397107E-4,9.8024306E-5,1.0772049E-5,-1.0241431E-4,-1.999889E-4,-8.492072E-6,2.379626E-5,-2.4964987E-5,-1.019074E-4],"split_indices":[541,575,571,571,541,575,571,0,0,0,571,142,575,571,0,571,352,74,0,0,0,0,0,0,418,27,23,0,0,0,0,0,0,0,0,0,0],"split_type":[0,0,0,0,0,0,0,0,0,0,0,0,0,0,0,0,0,0,0,0,0,0,0,0,0,0,0,0,0,0,0,0,0,0,0,0,0],"sum_hessian":[3.84E2,2E2,1.84E2,1.13E2,8.7E1,6.5E1,1.19E2,4.2E1,7.1E1,2.8E1,5.9E1,2.5E1,4E1,7.7E1,4.2E1,3.6E1,2.3E1,1.7E1,8E0,2.3E1,1.7E1,3.2E1,4.5E1,1.5E1,2.1E1,7E0,1.6E1,3E0,1.4E1,7E0,1E0,4E0,1.7E1,2E0,5E0,4E0,1.2E1],"tree_param":{"num_deleted":"0","num_feature":"600","num_nodes":"37","size_leaf_vector":"1"}},{"base_weights":[3.9003866E-3,-8.4714904E-2,8.827527E-2,-1.2456919E-1,-3.2185134E-2,3.2819748E-2,1.13814116E-1,-1.5002878E-3,-1.0424701E-1,-5.8712564E-2,-1.806389E-2,1.6279707E-2,4.240241E-2,8.612548E-4,1.2529075E-1,-1.1034759E-3,-7.858875E-4,-5.9649406E-4,-1.7177343E-4,-2.6626639E-2,-8.832107E-3,4.5161545E-3,2.0857867E-2,3.3933608E-4,4.8327647E-4,1.1231025E-3,1.4049818E-3,-2.8159522E-4,-1.4250052E-4,-1.4076165E-2,-2.9571843E-3,6.5288485E-5,8.712485E-6,2.1890677E-4,8.741189E-5,-1.4572847E-4,-3.8096456E-5,-4.6444315E-5,2.422042E-5],"categories":[],"categories_nodes":[],"categories_segments":[],"categories_sizes":[],"default_left":[0,0,0,0,0,0,0,0,0,0,0,0,0,0,0,0,0,0,0,0,0,0,0,0,0,0,0,0,0,0,0,0,0,0,0,0,0,0,0],"id":43,"left_children":[1,3,5,7,9,11,13,-1,15,17,19,21,23,-1,25,-1,-1,-1,-1,27,29,31,33,-1,-1,-1,-1,-1,-1,35,37,-1,-1,-1,-1,-1,-1,-1,-1],"loss_changes":[2.7589793E0,3.7282753E-1,2.6393974E-1,3.713417E-2,2.853284E-2,8.978054E-3,3.0201793E-2,0E0,7.197857E-4,2.6002526E-5,3.9544515E-3,1.1983332E-3,2.668947E-4,0E0,1.7892122E-3,0E0,0E0,0E0,0E0,1.10967085E-4,7.9020206E-4,5.300039E-5,2.1391083E-5,0E0,0E0,0E0,0E0,0E0,0E0,1.5871366E-5,1.3831422E-4,0E0,0E0,0E0,0E0,0E0,0E0,0E0,0E0],"parents":[2147483647,0,0,1,1,2,2,3,3,4,4,5,5,6,6,8,8,9,9,10,10,11,11,12,12,14,14,19,19,20,20,21,21,22,22,29,29,30,30],"right_children":[2,4,6,8,10,12,14,-1,16,18,20,22,24,-1,26,-1,-1,-1,-1,28,30,32,34,-1,-1,-1,-1,-1,-1,36,38,-1,-1,-1,-1,-1,-1,-1,-1],"split_conditions":[2.6713917E-1,1.5286343E-1,3.560161E-1,6.1196685E-2,1.9400084E-1,3.0603108E-1,4.2020005E-1,-1.5002878E-3,1.15885474E-1,2.701949E-1,2.3430671E-1,2.7900332E-1,3.2753313E-1,8.612548E-4,4.605219E-1,-1.1034759E-3,-7.858875E-4,-5.9649406E-4,-1.7177343E-4,7.78042E-1,2.515177E-1,3.4257498E-1,6.324569E-1,3.3933608E-4,4.8327647E-4,1.1231025E-3,1.4049818E-3,-2.8159522E-4,-1.4250052E-4,3.560161E-1,3.1119925E-1,6.5288485E-5,8.712485E-6,2.1890677E-4,8.741189E-5,-1.4572847E-4,-3.8096456E-5,-4.6444315E-5,2.422042E-5],"split_indices":[573,573,571,573,571,575,573,0,573,10,571,541,571,0,571,0,0,0,0,418,571,238,164,0,0,0,0,0,0,1,170,0,0,0,0,0,0,0,0],"split_type":[0,0,0,0,0,0,0,0,0,0,0,0,0,0,0,0,0,0,0,0,0,0,0,0,0,0,0,0,0,0,0,0,0,0,0,0,0,0,0],"sum_hessian":[3.67E2,1.79E2,1.88E2,1.01E2,7.8E1,6E1,1.28E2,4.2E1,5.9E1,2.6E1,5.2E1,2.3E1,3.7E1,4E1,8.8E1,4.5E1,1.4E1,2.5E1,1E0,2.6E1,2.6E1,7E0,1.6E1,1.8E1,1.9E1,5.2E1,3.6E1,2.2E1,4E0,1.3E1,1.3E1,4E0,3E0,1.4E1,2E0,1.2E1,1E0,1E1,3E0],"tree_param":{"num_deleted":"0","num_feature":"600","num_nodes":"39","size_leaf_vector":"1"}},{"base_weights":[-1.9941237E-4,-8.110613E-2,8.776428E-2,-1.2669198E-1,-3.265669E-2,3.2753326E-2,1.11989714E-1,-1.5080504E-3,-1.0597488E-3,-6.241964E-4,-1.9333312E-2,1.8269151E-2,4.2140283E-2,8.577082E-4,1.2323103E-3,-2.9632976E-2,-1.1707051E-2,7.387638E-3,2.1675118E-4,2.7103315E-4,4.52665E-4,-3.090268E-4,-1.4606505E-4,-1.577614E-2,-4.871726E-3,1.3115555E-5,8.1817256E-5,-2.8464048E-5,-1.6214546E-4,-7.960045E-5,2.3611954E-6],"categories":[],"categories_nodes":[],"categories_segments":[],"categories_sizes":[],"default_left":[0,0,0,0,0,0,0,0,0,0,0,0,0,0,0,0,0,0,0,0,0,0,0,0,0,0,0,0,0,0,0],"id":44,"left_children":[1,3,5,7,9,11,13,-1,-1,-1,15,17,19,-1,-1,21,23,25,-1,-1,-1,-1,-1,27,29,-1,-1,-1,-1,-1,-1],"loss_changes":[2.5549517E0,4.088726E-1,2.255503E-1,3.197539E-2,